<?xml version="1.0"?>
<!-- DTD for the XMLBIF 0.3 format -->
<!DOCTYPE BIF [
	<!ELEMENT BIF ( NETWORK )*>
	      <!ATTLIST BIF VERSION CDATA #REQUIRED>
	<!ELEMENT NETWORK ( NAME, ( PROPERTY | VARIABLE | DEFINITION )* )>
	<!ELEMENT NAME (#PCDATA)>
	<!ELEMENT VARIABLE ( NAME, ( OUTCOME |  PROPERTY )* ) >
	      <!ATTLIST VARIABLE TYPE (nature|decision|utility) "nature">
	<!ELEMENT OUTCOME (#PCDATA)>
	<!ELEMENT DEFINITION ( FOR | GIVEN | TABLE | PROPERTY )* >
	<!ELEMENT FOR (#PCDATA)>
	<!ELEMENT GIVEN (#PCDATA)>
	<!ELEMENT TABLE (#PCDATA)>
	<!ELEMENT PROPERTY (#PCDATA)>
]>


<BIF VERSION="0.3">
<NETWORK>
<NAME>child</NAME>
<VARIABLE TYPE="nature">
<NAME>BIRTH_ASPHYIA</NAME>
<OUTCOME>yes</OUTCOME>
<OUTCOME>no</OUTCOME>
</VARIABLE>
<VARIABLE TYPE="nature">
<NAME>DISEASE</NAME>
<OUTCOME>PFC</OUTCOME>
<OUTCOME>TGA</OUTCOME>
<OUTCOME>Fallot</OUTCOME>
<OUTCOME>PAIVS</OUTCOME>
<OUTCOME>TAPVD</OUTCOME>
<OUTCOME>Lung</OUTCOME>
</VARIABLE>
<VARIABLE TYPE="nature">
<NAME>AGE_AT_PRESENTATION</NAME>
<OUTCOME>0-3_days</OUTCOME>
<OUTCOME>4-10_days</OUTCOME>
<OUTCOME>11-30_days</OUTCOME>
</VARIABLE>
<VARIABLE TYPE="nature">
<NAME>LVH</NAME>
<OUTCOME>yes</OUTCOME>
<OUTCOME>no</OUTCOME>
</VARIABLE>
<VARIABLE TYPE="nature">
<NAME>DUCT_FLOW</NAME>
<OUTCOME>Lt_to_Rt</OUTCOME>
<OUTCOME>None</OUTCOME>
<OUTCOME>Rt_to_Lt</OUTCOME>
</VARIABLE>
<VARIABLE TYPE="nature">
<NAME>CARDIAC_MIXING</NAME>
<OUTCOME>None</OUTCOME>
<OUTCOME>Mild</OUTCOME>
<OUTCOME>Complete</OUTCOME>
<OUTCOME>Transp.</OUTCOME>
</VARIABLE>
<VARIABLE TYPE="nature">
<NAME>LUNG_PARENCHEMA</NAME>
<OUTCOME>Normal</OUTCOME>
<OUTCOME>Oedema</OUTCOME>
<OUTCOME>Abnormal</OUTCOME>
</VARIABLE>
<VARIABLE TYPE="nature">
<NAME>LUNG_FLOW</NAME>
<OUTCOME>Normal</OUTCOME>
<OUTCOME>Low</OUTCOME>
<OUTCOME>High</OUTCOME>
</VARIABLE>
<VARIABLE TYPE="nature">
<NAME>SICK</NAME>
<OUTCOME>yes</OUTCOME>
<OUTCOME>no</OUTCOME>
</VARIABLE>
<VARIABLE TYPE="nature">
<NAME>HYPOXIA_DISTRIBUTION</NAME>
<OUTCOME>Equal</OUTCOME>
<OUTCOME>Unequal</OUTCOME>
</VARIABLE>
<VARIABLE TYPE="nature">
<NAME>HYPOXIA_IN_O2</NAME>
<OUTCOME>None</OUTCOME>
<OUTCOME>Moderate</OUTCOME>
<OUTCOME>Severe</OUTCOME>
</VARIABLE>
<VARIABLE TYPE="nature">
<NAME>C02</NAME>
<OUTCOME>Normal</OUTCOME>
<OUTCOME>Low</OUTCOME>
<OUTCOME>High</OUTCOME>
</VARIABLE>
<VARIABLE TYPE="nature">
<NAME>CHEST_XRAY</NAME>
<OUTCOME>Normal</OUTCOME>
<OUTCOME>Oligaemic</OUTCOME>
<OUTCOME>Plethoric</OUTCOME>
<OUTCOME>Grd_Class</OUTCOME>
<OUTCOME>Asy_patchy</OUTCOME>
</VARIABLE>
<VARIABLE TYPE="nature">
<NAME>GRUNTING</NAME>
<OUTCOME>yes</OUTCOME>
<OUTCOME>no</OUTCOME>
</VARIABLE>
<VARIABLE TYPE="nature">
<NAME>LVH_REPORT</NAME>
<OUTCOME>yes</OUTCOME>
<OUTCOME>no</OUTCOME>
</VARIABLE>
<VARIABLE TYPE="nature">
<NAME>LOWER_BODY_O2</NAME>
<OUTCOME>lt5</OUTCOME>
<OUTCOME>5-12</OUTCOME>
<OUTCOME>12plus</OUTCOME>
</VARIABLE>
<VARIABLE TYPE="nature">
<NAME>RUP_QUAD_02</NAME>
<OUTCOME>lt5</OUTCOME>
<OUTCOME>5-12</OUTCOME>
<OUTCOME>12plus</OUTCOME>
</VARIABLE>
<VARIABLE TYPE="nature">
<NAME>C02_REPORT</NAME>
<OUTCOME>lt75</OUTCOME>
<OUTCOME>gt75</OUTCOME>
</VARIABLE>
<VARIABLE TYPE="nature">
<NAME>XRAY_REPORT</NAME>
<OUTCOME>Normal</OUTCOME>
<OUTCOME>Oligaemic</OUTCOME>
<OUTCOME>Plethoric</OUTCOME>
<OUTCOME>Grd_Class</OUTCOME>
<OUTCOME>Asy_patchy</OUTCOME>
</VARIABLE>
<VARIABLE TYPE="nature">
<NAME>GRUNTING_REPORT</NAME>
<OUTCOME>yes</OUTCOME>
<OUTCOME>no</OUTCOME>
</VARIABLE>
<DEFINITION>
<FOR>BIRTH_ASPHYIA</FOR>
<TABLE>
0.10164 0.89836 
</TABLE>
</DEFINITION>
<DEFINITION>
<FOR>DISEASE</FOR>
<GIVEN>BIRTH_ASPHYIA</GIVEN>
<TABLE>
0.19815033451397088 0.2941755214482487 0.25285320739866196 0.1511216056670602 0.0590318772136954 0.04466745375836285 
0.02952045950398504 0.33534440536087984 0.2980764949463467 0.23589652255220625 0.04997996348902444 0.05118215414755777 
</TABLE>
</DEFINITION>
<DEFINITION>
<FOR>AGE_AT_PRESENTATION</FOR>
<GIVEN>DISEASE</GIVEN>
<GIVEN>SICK</GIVEN>
<TABLE>
0.9309954751131222 0.029411764705882353 0.03959276018099547 
0.8467908902691511 0.1069703243616287 0.04623878536922015 
0.807937181663837 0.13964346349745332 0.05241935483870968 
0.691203781867297 0.2014182002363667 0.10737801789633632 
0.6980735551663748 0.15306479859894923 0.14886164623467601 
0.25535155258482106 0.23817581859717404 0.5064726288180049 
0.8077395577395577 0.13667076167076167 0.05558968058968059 
0.7916872224963 0.15700542673902318 0.051307350764676865 
0.8022447888829503 0.14270443613041153 0.055050774986638164 
0.7047477744807121 0.2062314540059347 0.08902077151335312 
0.9070294784580499 0.07369614512471655 0.01927437641723356 
0.7598425196850394 0.1994750656167979 0.04068241469816273 
</TABLE>
</DEFINITION>
<DEFINITION>
<FOR>LVH</FOR>
<GIVEN>DISEASE</GIVEN>
<TABLE>
0.09387055293613374 0.9061294470638662 
0.09554293996859524 0.9044570600314048 
0.09268093226114216 0.9073190677388578 
0.9017071453713481 0.09829285462865188 
0.06365422396856582 0.9363457760314342 
0.110055423594616 0.889944576405384 
</TABLE>
</DEFINITION>
<DEFINITION>
<FOR>DUCT_FLOW</FOR>
<GIVEN>DISEASE</GIVEN>
<TABLE>
0.14402057436776683 0.04543506215173596 0.8105443634804972 
0.10436043000362362 0.7976204855658896 0.09801908443048678 
0.808709281722775 0.19129071827722502 0.0 
1.0 0.0 0.0 
0.36267190569744595 0.3049115913555992 0.3324165029469548 
0.19319081551860648 0.392319873317498 0.4144893111638955 
</TABLE>
</DEFINITION>
<DEFINITION>
<FOR>CARDIAC_MIXING</FOR>
<GIVEN>DISEASE</GIVEN>
<TABLE>
0.39434204886412344 0.42306043720531505 0.1594513501928847 0.02314616373767681 
0.02089624350767001 0.08346418649595362 0.09034907597535935 0.805290494021017 
0.01751397028758348 0.15476352732724546 0.8082322475126074 0.019490254872563718 
0.009063709961281238 0.022263287574797605 0.9488736360436466 0.01979936642027455 
0.009823182711198428 0.03614931237721022 0.9422396856581532 0.011787819253438114 
0.3915281076801267 0.5463182897862233 0.047110055423594616 0.015043547110055424 
</TABLE>
</DEFINITION>
<DEFINITION>
<FOR>LUNG_PARENCHEMA</FOR>
<GIVEN>DISEASE</GIVEN>
<TABLE>
0.6150878696956709 0.09687098156879555 0.28804114873553366 
0.8093368764343519 0.044449812779321175 0.14621331078632685 
0.7976693471446095 0.04777156876107401 0.15455908409431648 
0.8073741640267511 0.049366420274551216 0.14325941569869763 
0.09351669941060904 0.5976424361493123 0.3088408644400786 
0.02494061757719715 0.26999208234362626 0.7050673000791766 
</TABLE>
</DEFINITION>
<DEFINITION>
<FOR>LUNG_FLOW</FOR>
<GIVEN>DISEASE</GIVEN>
<TABLE>
0.30132876125160735 0.6476639519931419 0.05100728675525075 
0.20509723396545476 0.04740910738011837 0.7474936586544269 
0.14863023033937578 0.8003271091726863 0.051042660487937846 
0.0917810630059838 0.8579725448785639 0.05024639211545231 
0.287229862475442 0.09783889980353634 0.6149312377210217 
0.6951702296120348 0.111243072050673 0.19358669833729217 
</TABLE>
</DEFINITION>
<DEFINITION>
<FOR>SICK</FOR>
<GIVEN>DISEASE</GIVEN>
<TABLE>
0.37891127303900557 0.6210887269609944 
0.28457543181543665 0.7154245681845633 
0.19456181000408887 0.8054381899959111 
0.28651883139739526 0.7134811686026047 
0.7351669941060903 0.2648330058939096 
0.6983372921615202 0.3016627078384798 
</TABLE>
</DEFINITION>
<DEFINITION>
<FOR>HYPOXIA_DISTRIBUTION</FOR>
<GIVEN>DUCT_FLOW</GIVEN>
<GIVEN>CARDIAC_MIXING</GIVEN>
<TABLE>
0.92914653784219 0.07085346215780998 
0.9510929974064468 0.04890700259355317 
0.9525466184247148 0.047453381575285274 
0.9491247264770241 0.05087527352297593 
0.946949602122016 0.05305039787798409 
0.9577726218097448 0.04222737819025522 
0.9497020262216925 0.05029797377830751 
0.9493647407956969 0.05063525920430307 
0.03636363636363636 0.9636363636363636 
0.45466578424884185 0.5453342157511581 
0.9513725490196079 0.04862745098039216 
0.5125368731563422 0.48746312684365783 
</TABLE>
</DEFINITION>
<DEFINITION>
<FOR>HYPOXIA_IN_O2</FOR>
<GIVEN>CARDIAC_MIXING</GIVEN>
<GIVEN>LUNG_PARENCHEMA</GIVEN>
<TABLE>
0.9002535925612849 0.06677937447168217 0.03296703296703297 
0.16153846153846155 0.7871794871794872 0.05128205128205128 
0.7132146204311153 0.18556701030927836 0.10121836925960637 
0.1010182207931404 0.7896570203644159 0.10932475884244373 
0.09244791666666667 0.7434895833333334 0.1640625 
0.11849865951742627 0.6176943699731904 0.2638069705093834 
0.10034706503696997 0.7027815502238318 0.19687138473919824 
0.0374331550802139 0.6466768525592055 0.3158899923605806 
0.08743652020313535 0.5078383749172003 0.4047251048796644 
0.021477586667854914 0.17467248908296942 0.8038499242491757 
0.0706605222734255 0.30568356374807987 0.6236559139784946 
0.018615751789976133 0.19904534606205251 0.7823389021479714 
</TABLE>
</DEFINITION>
<DEFINITION>
<FOR>C02</FOR>
<GIVEN>LUNG_PARENCHEMA</GIVEN>
<TABLE>
0.7981786378654524 0.09681539273121026 0.10500596940333731 
0.6672690309464648 0.04427377456516828 0.2884571944883668 
0.4442235244872332 0.052113855169527 0.5036626203432398 
</TABLE>
</DEFINITION>
<DEFINITION>
<FOR>CHEST_XRAY</FOR>
<GIVEN>LUNG_PARENCHEMA</GIVEN>
<GIVEN>LUNG_FLOW</GIVEN>
<TABLE>
0.9003883167313861 0.02836400472733412 0.026338004389667397 0.012831335471889246 0.032078338679723116 
0.1307011935208866 0.8128196930946292 0.019128303495311166 0.017423273657289004 0.019927536231884056 
0.15336394137383014 0.008299487903937842 0.7900406145152746 0.04070280769909942 0.007593148507858026 
0.061871616395978345 0.016241299303944315 0.12761020881670534 0.6929621036349575 0.10131477184841454 
0.04067321178120617 0.2138849929873773 0.06802244039270687 0.4950911640953717 0.182328190743338 
0.04449648711943794 0.015807962529274005 0.4028103044496487 0.3946135831381733 0.14227166276346603 
0.0566692367000771 0.04317656129529684 0.04741711642251349 0.059367771781033155 0.7933693138010794 
0.048473097430925836 0.16383906931652933 0.046291808046534176 0.04726126999515269 0.694134755210858 
0.2390691114245416 0.3473201692524683 0.02362482369534556 0.3282792665726375 0.06170662905500705 
</TABLE>
</DEFINITION>
<DEFINITION>
<FOR>GRUNTING</FOR>
<GIVEN>LUNG_PARENCHEMA</GIVEN>
<GIVEN>SICK</GIVEN>
<TABLE>
0.20037629350893696 0.7996237064910631 
0.049111531190926275 0.9508884688090737 
0.40336134453781514 0.5966386554621849 
0.20787746170678337 0.7921225382932167 
0.7960363336085879 0.20396366639141206 
0.6219821036636839 0.37801789633631605 
</TABLE>
</DEFINITION>
<DEFINITION>
<FOR>LVH_REPORT</FOR>
<GIVEN>LVH</GIVEN>
<TABLE>
0.9059069901790873 0.09409300982091277 
0.052140960389466695 0.9478590396105333 
</TABLE>
</DEFINITION>
<DEFINITION>
<FOR>LOWER_BODY_O2</FOR>
<GIVEN>HYPOXIA_DISTRIBUTION</GIVEN>
<GIVEN>HYPOXIA_IN_O2</GIVEN>
<TABLE>
0.0944246737841044 0.3290628706998814 0.5765124555160143 
0.2971552126171196 0.6088947301479629 0.09395005723491753 
0.5158822165546023 0.3910271272895896 0.09309065615580803 
0.4481865284974093 0.4749568221070812 0.0768566493955095 
0.47780797101449274 0.47056159420289856 0.051630434782608696 
0.5962025316455696 0.3550632911392405 0.048734177215189876 
</TABLE>
</DEFINITION>
<DEFINITION>
<FOR>RUP_QUAD_02</FOR>
<GIVEN>HYPOXIA_IN_O2</GIVEN>
<TABLE>
0.09361622929462125 0.2897822445561139 0.6166015261492649 
0.3066485753052917 0.5942236867610002 0.09912773793370808 
0.49166312659303313 0.4081350892098556 0.1002017841971113 
</TABLE>
</DEFINITION>
<DEFINITION>
<FOR>C02_REPORT</FOR>
<GIVEN>C02</GIVEN>
<TABLE>
0.900909672573511 0.099090327426489 
0.8954795503468069 0.10452044965319301 
0.10646272285251215 0.8935372771474879 
</TABLE>
</DEFINITION>
<DEFINITION>
<FOR>XRAY_REPORT</FOR>
<GIVEN>CHEST_XRAY</GIVEN>
<TABLE>
0.8064486154989778 0.05723843151830515 0.05175617914885709 0.022393607136220035 0.06216316669763984 
0.10157002777305447 0.7995805701978121 0.019327778722439494 0.0180241455534773 0.061497477753216574 
0.09218084120807857 0.02325365944042987 0.8079488604780434 0.017417083564943488 0.05919955530850472 
0.08167420814479638 0.02239819004524887 0.08529411764705883 0.6169683257918552 0.19366515837104073 
0.08305908164864441 0.016768531578122553 0.09277542704905187 0.09826046074283028 0.7091364989813509 
</TABLE>
</DEFINITION>
<DEFINITION>
<FOR>GRUNTING_REPORT</FOR>
<GIVEN>GRUNTING</GIVEN>
<TABLE>
0.8089120474350912 0.19108795256490882 
0.1062286140626206 0.8937713859373794 
</TABLE>
</DEFINITION>
</NETWORK>
</BIF>

