<?xml version="1.0" encoding="US-ASCII"?>
<!--
	Bayesian network in XMLBIF v0.3 (BayesNet Interchange Format)
-->
<!-- DTD for the XMLBIF 0.3 format -->
<!DOCTYPE BIF [
	<!ELEMENT BIF ( NETWORK )*>
	      <!ATTLIST BIF VERSION CDATA #REQUIRED>
	<!ELEMENT NETWORK ( NAME, ( PROPERTY | VARIABLE | DEFINITION )* )>
	<!ELEMENT NAME (#PCDATA)>
	<!ELEMENT VARIABLE ( NAME, ( OUTCOME |  PROPERTY )* ) >
	      <!ATTLIST VARIABLE TYPE (nature|decision|utility) "nature">
	<!ELEMENT OUTCOME (#PCDATA)>
	<!ELEMENT DEFINITION ( FOR | GIVEN | TABLE | PROPERTY )* >
	<!ELEMENT FOR (#PCDATA)>
	<!ELEMENT GIVEN (#PCDATA)>
	<!ELEMENT TABLE (#PCDATA)>
	<!ELEMENT PROPERTY (#PCDATA)>
]>
<BIF VERSION="0.3">
<NETWORK><NAME>pathfinder</NAME>

<!-- Variables -->
<VARIABLE TYPE="nature">
	<NAME>Fault</NAME>
	<OUTCOME>"AIDS_early"</OUTCOME>
	<OUTCOME>"AILD"</OUTCOME>
	<OUTCOME>"ALIP"</OUTCOME>
	<OUTCOME>"Cat_scratch_disease"</OUTCOME>
	<OUTCOME>"Dermatopathic_laden"</OUTCOME>
	<OUTCOME>"Florid_follic_hyperp"</OUTCOME>
	<OUTCOME>"GLH_hyaline_vacular"</OUTCOME>
	<OUTCOME>"GLH_plasma_cell_type"</OUTCOME>
	<OUTCOME>"Granulomatous_laden"</OUTCOME>
	<OUTCOME>"Histiocytosis_x"</OUTCOME>
	<OUTCOME>"Infectious_mono"</OUTCOME>
	<OUTCOME>"Leprosy"</OUTCOME>
	<OUTCOME>"Lymphangiographic"</OUTCOME>
	<OUTCOME>"Mantle_zone_hyperl"</OUTCOME>
	<OUTCOME>"Necrotizing_kikuchi"</OUTCOME>
	<OUTCOME>"Necrotiz_nonKikuchi"</OUTCOME>
	<OUTCOME>"Rheumatoid_arthritis"</OUTCOME>
	<OUTCOME>"Sarcoidosis"</OUTCOME>
	<OUTCOME>"SHML"</OUTCOME>
	<OUTCOME>"Sinus_hyperplasia"</OUTCOME>
	<OUTCOME>"Syphilis"</OUTCOME>
	<OUTCOME>"Toxoplasmosis"</OUTCOME>
	<OUTCOME>"Tuberculosis"</OUTCOME>
	<OUTCOME>"Viral_NOS"</OUTCOME>
	<OUTCOME>"Whipple_s_disease"</OUTCOME>
	<OUTCOME>"L_H_nodular_HD"</OUTCOME>
	<OUTCOME>"L_H_diffuse_HD"</OUTCOME>
	<OUTCOME>"Nodular_sclerosis"</OUTCOME>
	<OUTCOME>"Cellular_phase_NSHD"</OUTCOME>
	<OUTCOME>"Syncytial_NSHD"</OUTCOME>
	<OUTCOME>"Mixed_cellularity_HD"</OUTCOME>
	<OUTCOME>"Interfollicular_HD"</OUTCOME>
	<OUTCOME>"Diffuse_fibrosis_HD"</OUTCOME>
	<OUTCOME>"Reticular_type_HD"</OUTCOME>
	<OUTCOME>"Small_cleaved__fol"</OUTCOME>
	<OUTCOME>"Mixed__fol"</OUTCOME>
	<OUTCOME>"Large_cell__fol"</OUTCOME>
	<OUTCOME>"Small_noncleaved_fol"</OUTCOME>
	<OUTCOME>"Small_lymphocytic"</OUTCOME>
	<OUTCOME>"Plasmacytoid_lyctic"</OUTCOME>
	<OUTCOME>"Mantle_zone"</OUTCOME>
	<OUTCOME>"Small_cleaved__dif"</OUTCOME>
	<OUTCOME>"Mixed__fcc_dif"</OUTCOME>
	<OUTCOME>"Large_cell__dif"</OUTCOME>
	<OUTCOME>"B_immunoblastic"</OUTCOME>
	<OUTCOME>"T_immunob_mix"</OUTCOME>
	<OUTCOME>"IBL_like_T_cell_lym"</OUTCOME>
	<OUTCOME>"Japanese_ATL"</OUTCOME>
	<OUTCOME>"Lymphoblastic"</OUTCOME>
	<OUTCOME>"Small_noncleaved_dif"</OUTCOME>
	<OUTCOME>"True_histiocytic"</OUTCOME>
	<OUTCOME>"Malig_histiocytosis"</OUTCOME>
	<OUTCOME>"Multiple_myeloma"</OUTCOME>
	<OUTCOME>"Mycosis_fungoides"</OUTCOME>
	<OUTCOME>"AML"</OUTCOME>
	<OUTCOME>"Hairy_cell_leukemia"</OUTCOME>
	<OUTCOME>"Carcinoma"</OUTCOME>
	<OUTCOME>"Melanoma"</OUTCOME>
	<OUTCOME>"Em_plasmacytoma"</OUTCOME>
	<OUTCOME>"Kaposis_sarcoma"</OUTCOME>
	<OUTCOME>"Mast_cell_disease"</OUTCOME>
	<OUTCOME>"AIDS_involutionary"</OUTCOME>
	<OUTCOME>"T_immunob_lrg"</OUTCOME>
</VARIABLE>
<VARIABLE TYPE="nature">
	<NAME>F1</NAME>
	<OUTCOME>"Absent"</OUTCOME>
	<OUTCOME>"Present"</OUTCOME>
</VARIABLE>
<VARIABLE TYPE="nature">
	<NAME>F97</NAME>
	<OUTCOME>"Absent"</OUTCOME>
	<OUTCOME>"Present"</OUTCOME>
</VARIABLE>
<VARIABLE TYPE="nature">
	<NAME>F2</NAME>
	<OUTCOME>"NA"</OUTCOME>
	<OUTCOME>"No"</OUTCOME>
	<OUTCOME>"Yes"</OUTCOME>
</VARIABLE>
<VARIABLE TYPE="nature">
	<NAME>F78</NAME>
	<OUTCOME>"NA"</OUTCOME>
	<OUTCOME>"No"</OUTCOME>
	<OUTCOME>"Yes"</OUTCOME>
</VARIABLE>
<VARIABLE TYPE="nature">
	<NAME>F3</NAME>
	<OUTCOME>"NA"</OUTCOME>
	<OUTCOME>"No"</OUTCOME>
	<OUTCOME>"Yes"</OUTCOME>
</VARIABLE>
<VARIABLE TYPE="nature">
	<NAME>F4</NAME>
	<OUTCOME>"NA"</OUTCOME>
	<OUTCOME>"No"</OUTCOME>
	<OUTCOME>"Yes"</OUTCOME>
</VARIABLE>
<VARIABLE TYPE="nature">
	<NAME>F5</NAME>
	<OUTCOME>"NA"</OUTCOME>
	<OUTCOME>"None"</OUTCOME>
	<OUTCOME>"One"</OUTCOME>
	<OUTCOME>"More_than_one"</OUTCOME>
</VARIABLE>
<VARIABLE TYPE="nature">
	<NAME>F53</NAME>
	<OUTCOME>"Absent"</OUTCOME>
	<OUTCOME>"Focal__non_extensive_"</OUTCOME>
	<OUTCOME>"Multifocal__non_extensive_"</OUTCOME>
	<OUTCOME>"Extensive"</OUTCOME>
</VARIABLE>
<VARIABLE TYPE="nature">
	<NAME>F6</NAME>
	<OUTCOME>"Absent"</OUTCOME>
	<OUTCOME>"Slight"</OUTCOME>
	<OUTCOME>"Moderate"</OUTCOME>
	<OUTCOME>"Marked"</OUTCOME>
</VARIABLE>
<VARIABLE TYPE="nature">
	<NAME>F7</NAME>
	<OUTCOME>"Absent"</OUTCOME>
	<OUTCOME>"Rare"</OUTCOME>
	<OUTCOME>"Focal"</OUTCOME>
	<OUTCOME>"Multifocal"</OUTCOME>
	<OUTCOME>"Extensive"</OUTCOME>
</VARIABLE>
<VARIABLE TYPE="nature">
	<NAME>F56</NAME>
	<OUTCOME>"Absent"</OUTCOME>
	<OUTCOME>"Focal__non_extensive_"</OUTCOME>
	<OUTCOME>"Multifocal__non_extensive_"</OUTCOME>
	<OUTCOME>"Extensive"</OUTCOME>
</VARIABLE>
<VARIABLE TYPE="nature">
	<NAME>F8</NAME>
	<OUTCOME>"Absent_to_slight___5__"</OUTCOME>
	<OUTCOME>"Moderate__5_50__"</OUTCOME>
	<OUTCOME>"Marked___50__"</OUTCOME>
</VARIABLE>
<VARIABLE TYPE="nature">
	<NAME>F9</NAME>
	<OUTCOME>"Absent"</OUTCOME>
	<OUTCOME>"Rare"</OUTCOME>
	<OUTCOME>"Focal_SS_pattern"</OUTCOME>
	<OUTCOME>"Multifocal_SS_pattern"</OUTCOME>
	<OUTCOME>"Extensive_SS_pattern"</OUTCOME>
</VARIABLE>
<VARIABLE TYPE="nature">
	<NAME>F10</NAME>
	<OUTCOME>"Absent"</OUTCOME>
	<OUTCOME>"Present"</OUTCOME>
</VARIABLE>
<VARIABLE TYPE="nature">
	<NAME>F55</NAME>
	<OUTCOME>"Absent"</OUTCOME>
	<OUTCOME>"Rare___3_"</OUTCOME>
	<OUTCOME>"Present__3_20_"</OUTCOME>
	<OUTCOME>"Many___20_"</OUTCOME>
</VARIABLE>
<VARIABLE TYPE="nature">
	<NAME>F52</NAME>
	<OUTCOME>"Absent"</OUTCOME>
	<OUTCOME>"Rare___3_"</OUTCOME>
	<OUTCOME>"Present__3_20_"</OUTCOME>
	<OUTCOME>"Many___20_"</OUTCOME>
</VARIABLE>
<VARIABLE TYPE="nature">
	<NAME>F11</NAME>
	<OUTCOME>"Absent"</OUTCOME>
	<OUTCOME>"Rare___3_"</OUTCOME>
	<OUTCOME>"Present__3_15_"</OUTCOME>
	<OUTCOME>"Many__16_50_"</OUTCOME>
	<OUTCOME>"Striking___50_"</OUTCOME>
</VARIABLE>
<VARIABLE TYPE="nature">
	<NAME>F12</NAME>
	<OUTCOME>"Absent"</OUTCOME>
	<OUTCOME>"Present"</OUTCOME>
</VARIABLE>
<VARIABLE TYPE="nature">
	<NAME>F13</NAME>
	<OUTCOME>"Absent"</OUTCOME>
	<OUTCOME>"Present__1_2_"</OUTCOME>
	<OUTCOME>"Prominent___2_"</OUTCOME>
</VARIABLE>
<VARIABLE TYPE="nature">
	<NAME>F14</NAME>
	<OUTCOME>"Absent"</OUTCOME>
	<OUTCOME>"Present"</OUTCOME>
</VARIABLE>
<VARIABLE TYPE="nature">
	<NAME>F15</NAME>
	<OUTCOME>"Absent"</OUTCOME>
	<OUTCOME>"Present"</OUTCOME>
</VARIABLE>
<VARIABLE TYPE="nature">
	<NAME>F16</NAME>
	<OUTCOME>"Absent"</OUTCOME>
	<OUTCOME>"Present"</OUTCOME>
	<OUTCOME>"Prominent"</OUTCOME>
</VARIABLE>
<VARIABLE TYPE="nature">
	<NAME>F17</NAME>
	<OUTCOME>"Absent"</OUTCOME>
	<OUTCOME>"Present___5__"</OUTCOME>
	<OUTCOME>"Prominent___5__"</OUTCOME>
</VARIABLE>
<VARIABLE TYPE="nature">
	<NAME>F18</NAME>
	<OUTCOME>"NA"</OUTCOME>
	<OUTCOME>"No"</OUTCOME>
	<OUTCOME>"Some"</OUTCOME>
	<OUTCOME>"Many"</OUTCOME>
</VARIABLE>
<VARIABLE TYPE="nature">
	<NAME>F19</NAME>
	<OUTCOME>"Absent"</OUTCOME>
	<OUTCOME>"Present___5__"</OUTCOME>
	<OUTCOME>"Prominent___5__"</OUTCOME>
</VARIABLE>
<VARIABLE TYPE="nature">
	<NAME>F41</NAME>
	<OUTCOME>"Absent"</OUTCOME>
	<OUTCOME>"Present"</OUTCOME>
</VARIABLE>
<VARIABLE TYPE="nature">
	<NAME>F44</NAME>
	<OUTCOME>"Absent"</OUTCOME>
	<OUTCOME>"Present"</OUTCOME>
</VARIABLE>
<VARIABLE TYPE="nature">
	<NAME>F20</NAME>
	<OUTCOME>"Absent"</OUTCOME>
	<OUTCOME>"Rare__1_10__"</OUTCOME>
	<OUTCOME>"Present__11_50__"</OUTCOME>
	<OUTCOME>"Many__51_70__"</OUTCOME>
</VARIABLE>
<VARIABLE TYPE="nature">
	<NAME>F90</NAME>
	<OUTCOME>"Absent"</OUTCOME>
	<OUTCOME>"Slight___10_"</OUTCOME>
	<OUTCOME>"Moderate__10_20_"</OUTCOME>
	<OUTCOME>"Marked___20_"</OUTCOME>
</VARIABLE>
<VARIABLE TYPE="nature">
	<NAME>F21</NAME>
	<OUTCOME>"Absent"</OUTCOME>
	<OUTCOME>"Present"</OUTCOME>
	<OUTCOME>"Prominent"</OUTCOME>
</VARIABLE>
<VARIABLE TYPE="nature">
	<NAME>F22</NAME>
	<OUTCOME>"NA"</OUTCOME>
	<OUTCOME>"Absent"</OUTCOME>
	<OUTCOME>"Present"</OUTCOME>
</VARIABLE>
<VARIABLE TYPE="nature">
	<NAME>F23</NAME>
	<OUTCOME>"Absent"</OUTCOME>
	<OUTCOME>"Present"</OUTCOME>
</VARIABLE>
<VARIABLE TYPE="nature">
	<NAME>F24</NAME>
	<OUTCOME>"Absent"</OUTCOME>
	<OUTCOME>"Present"</OUTCOME>
</VARIABLE>
<VARIABLE TYPE="nature">
	<NAME>F25</NAME>
	<OUTCOME>"Absent"</OUTCOME>
	<OUTCOME>"Present__1_5_"</OUTCOME>
	<OUTCOME>"Prominent___5_"</OUTCOME>
</VARIABLE>
<VARIABLE TYPE="nature">
	<NAME>F26</NAME>
	<OUTCOME>"Absent"</OUTCOME>
	<OUTCOME>"Present"</OUTCOME>
</VARIABLE>
<VARIABLE TYPE="nature">
	<NAME>F27</NAME>
	<OUTCOME>"Absent"</OUTCOME>
	<OUTCOME>"Present"</OUTCOME>
</VARIABLE>
<VARIABLE TYPE="nature">
	<NAME>F28</NAME>
	<OUTCOME>"Negative"</OUTCOME>
	<OUTCOME>"Positive"</OUTCOME>
</VARIABLE>
<VARIABLE TYPE="nature">
	<NAME>F92</NAME>
	<OUTCOME>"Absent"</OUTCOME>
	<OUTCOME>"Present"</OUTCOME>
</VARIABLE>
<VARIABLE TYPE="nature">
	<NAME>F29</NAME>
	<OUTCOME>"Negative"</OUTCOME>
	<OUTCOME>"Positive"</OUTCOME>
</VARIABLE>
<VARIABLE TYPE="nature">
	<NAME>F98</NAME>
	<OUTCOME>"NA"</OUTCOME>
	<OUTCOME>"x1_25_"</OUTCOME>
	<OUTCOME>"x25_75_"</OUTCOME>
	<OUTCOME>"x75_90_"</OUTCOME>
	<OUTCOME>"x_90_"</OUTCOME>
</VARIABLE>
<VARIABLE TYPE="nature">
	<NAME>F30</NAME>
	<OUTCOME>"NA"</OUTCOME>
	<OUTCOME>"No_expansion"</OUTCOME>
	<OUTCOME>"Sml__each___10__"</OUTCOME>
	<OUTCOME>"Large_focus_foci"</OUTCOME>
	<OUTCOME>"Uniform_mild_mod_exp"</OUTCOME>
	<OUTCOME>"Uniform_marked_exp"</OUTCOME>
</VARIABLE>
<VARIABLE TYPE="nature">
	<NAME>F31</NAME>
	<OUTCOME>"Absent"</OUTCOME>
	<OUTCOME>"Present"</OUTCOME>
</VARIABLE>
<VARIABLE TYPE="nature">
	<NAME>F32</NAME>
	<OUTCOME>"Absent"</OUTCOME>
	<OUTCOME>"Present"</OUTCOME>
	<OUTCOME>"Prominent"</OUTCOME>
</VARIABLE>
<VARIABLE TYPE="nature">
	<NAME>F33</NAME>
	<OUTCOME>"Absent"</OUTCOME>
	<OUTCOME>"Rare___6_"</OUTCOME>
	<OUTCOME>"Few__6_25_"</OUTCOME>
	<OUTCOME>"Many__26_100_"</OUTCOME>
	<OUTCOME>"Striking___100_"</OUTCOME>
</VARIABLE>
<VARIABLE TYPE="nature">
	<NAME>F34</NAME>
	<OUTCOME>"Absent"</OUTCOME>
	<OUTCOME>"Present"</OUTCOME>
</VARIABLE>
<VARIABLE TYPE="nature">
	<NAME>F35</NAME>
	<OUTCOME>"Absent"</OUTCOME>
	<OUTCOME>"Rare___6_cells_"</OUTCOME>
	<OUTCOME>"Few__6_25_cells_"</OUTCOME>
	<OUTCOME>"Many__26___100_cells_"</OUTCOME>
	<OUTCOME>"Striking___100_cells_"</OUTCOME>
	<OUTCOME>"Sheets___50__of_sec_"</OUTCOME>
</VARIABLE>
<VARIABLE TYPE="nature">
	<NAME>F36</NAME>
	<OUTCOME>"Absent"</OUTCOME>
	<OUTCOME>"Present__1_5_"</OUTCOME>
	<OUTCOME>"Prominent___5_"</OUTCOME>
</VARIABLE>
<VARIABLE TYPE="nature">
	<NAME>F37</NAME>
	<OUTCOME>"Absent"</OUTCOME>
	<OUTCOME>"Present"</OUTCOME>
</VARIABLE>
<VARIABLE TYPE="nature">
	<NAME>F84</NAME>
	<OUTCOME>"Absent"</OUTCOME>
	<OUTCOME>"Rare__1_10__"</OUTCOME>
	<OUTCOME>"Present__11_50__"</OUTCOME>
	<OUTCOME>"Many__51_70__"</OUTCOME>
</VARIABLE>
<VARIABLE TYPE="nature">
	<NAME>F96</NAME>
	<OUTCOME>"NA"</OUTCOME>
	<OUTCOME>"Other"</OUTCOME>
	<OUTCOME>"LC"</OUTCOME>
	<OUTCOME>"LNC"</OUTCOME>
</VARIABLE>
<VARIABLE TYPE="nature">
	<NAME>F38</NAME>
	<OUTCOME>"NA"</OUTCOME>
	<OUTCOME>"Clumped"</OUTCOME>
	<OUTCOME>"Vesicular"</OUTCOME>
	<OUTCOME>"Fine_and_delicate"</OUTCOME>
	<OUTCOME>"Cartwheel"</OUTCOME>
</VARIABLE>
<VARIABLE TYPE="nature">
	<NAME>F39</NAME>
	<OUTCOME>"NA"</OUTCOME>
	<OUTCOME>"Scanty"</OUTCOME>
	<OUTCOME>"Mod_abund_clear"</OUTCOME>
	<OUTCOME>"Mod_abund_deep"</OUTCOME>
</VARIABLE>
<VARIABLE TYPE="nature">
	<NAME>F40</NAME>
	<OUTCOME>"NA"</OUTCOME>
	<OUTCOME>"Round__most_"</OUTCOME>
	<OUTCOME>"Slightly_irregular__most_"</OUTCOME>
	<OUTCOME>"Irregular__most_"</OUTCOME>
	<OUTCOME>"Convoluted__some_"</OUTCOME>
	<OUTCOME>"Cerebriform__some_"</OUTCOME>
	<OUTCOME>"Multilobated__some_"</OUTCOME>
	<OUTCOME>"Mulberry__some_"</OUTCOME>
</VARIABLE>
<VARIABLE TYPE="nature">
	<NAME>F42</NAME>
	<OUTCOME>"NA"</OUTCOME>
	<OUTCOME>"x_80__6_12u_pr_vr_ns"</OUTCOME>
	<OUTCOME>"x_80__6_12u_no_pr_vr_ns"</OUTCOME>
	<OUTCOME>"x_50__13_20u_nucleoli"</OUTCOME>
	<OUTCOME>"x_50__13_20u_no_nucleoli"</OUTCOME>
	<OUTCOME>"x_50___20u_nucleoli"</OUTCOME>
	<OUTCOME>"x_50___20u_no_nucleoli"</OUTCOME>
	<OUTCOME>"mixed__sml_cl_pr_var_ns"</OUTCOME>
	<OUTCOME>"mixed__sml_cl_not_pr_vr"</OUTCOME>
</VARIABLE>
<VARIABLE TYPE="nature">
	<NAME>F43</NAME>
	<OUTCOME>"Absent"</OUTCOME>
	<OUTCOME>"Present__1_50_"</OUTCOME>
	<OUTCOME>"Prominent___50_"</OUTCOME>
</VARIABLE>
<VARIABLE TYPE="nature">
	<NAME>F45</NAME>
	<OUTCOME>"Absent"</OUTCOME>
	<OUTCOME>"Present"</OUTCOME>
</VARIABLE>
<VARIABLE TYPE="nature">
	<NAME>F46</NAME>
	<OUTCOME>"x0_5"</OUTCOME>
	<OUTCOME>"x6_15"</OUTCOME>
	<OUTCOME>"x16_50"</OUTCOME>
	<OUTCOME>"x_50"</OUTCOME>
</VARIABLE>
<VARIABLE TYPE="nature">
	<NAME>F47</NAME>
	<OUTCOME>"NA"</OUTCOME>
	<OUTCOME>"Clumped"</OUTCOME>
	<OUTCOME>"Vesicular"</OUTCOME>
	<OUTCOME>"Fine_and_delicate"</OUTCOME>
	<OUTCOME>"Cartwheel"</OUTCOME>
</VARIABLE>
<VARIABLE TYPE="nature">
	<NAME>F85</NAME>
	<OUTCOME>"Absent"</OUTCOME>
	<OUTCOME>"Rare__1_10__"</OUTCOME>
	<OUTCOME>"Present__11_50__"</OUTCOME>
	<OUTCOME>"Many__51_70__"</OUTCOME>
</VARIABLE>
<VARIABLE TYPE="nature">
	<NAME>F48</NAME>
	<OUTCOME>"NA"</OUTCOME>
	<OUTCOME>"Scanty"</OUTCOME>
	<OUTCOME>"Mod_abund_clear"</OUTCOME>
	<OUTCOME>"Mod_abund_deep"</OUTCOME>
</VARIABLE>
<VARIABLE TYPE="nature">
	<NAME>F49</NAME>
	<OUTCOME>"NA"</OUTCOME>
	<OUTCOME>"Round"</OUTCOME>
	<OUTCOME>"Slightly_irregular"</OUTCOME>
	<OUTCOME>"Irregular"</OUTCOME>
	<OUTCOME>"Convoluted"</OUTCOME>
	<OUTCOME>"Cerebriform"</OUTCOME>
	<OUTCOME>"Multilobulated"</OUTCOME>
</VARIABLE>
<VARIABLE TYPE="nature">
	<NAME>F50</NAME>
	<OUTCOME>"NA"</OUTCOME>
	<OUTCOME>"No_nucleoli"</OUTCOME>
	<OUTCOME>"x1_small"</OUTCOME>
	<OUTCOME>"x1_prominent__central_"</OUTCOME>
	<OUTCOME>"x_1_central"</OUTCOME>
	<OUTCOME>"x_1_peripheral"</OUTCOME>
</VARIABLE>
<VARIABLE TYPE="nature">
	<NAME>F51</NAME>
	<OUTCOME>"Absent"</OUTCOME>
	<OUTCOME>"Present___5__"</OUTCOME>
	<OUTCOME>"Prominent__5_50__"</OUTCOME>
	<OUTCOME>"Confluence___50__"</OUTCOME>
</VARIABLE>
<VARIABLE TYPE="nature">
	<NAME>F83</NAME>
	<OUTCOME>"NA"</OUTCOME>
	<OUTCOME>"Sparse___10__"</OUTCOME>
	<OUTCOME>"Moderate__11_50__"</OUTCOME>
	<OUTCOME>"Numerous__51_90__"</OUTCOME>
	<OUTCOME>"Striking___90__"</OUTCOME>
</VARIABLE>
<VARIABLE TYPE="nature">
	<NAME>F54</NAME>
	<OUTCOME>"Absent"</OUTCOME>
	<OUTCOME>"Focal__non_extensive_"</OUTCOME>
	<OUTCOME>"Multifocal__non_extensive_"</OUTCOME>
	<OUTCOME>"Extensive"</OUTCOME>
</VARIABLE>
<VARIABLE TYPE="nature">
	<NAME>F57</NAME>
	<OUTCOME>"Absent"</OUTCOME>
	<OUTCOME>"Present"</OUTCOME>
</VARIABLE>
<VARIABLE TYPE="nature">
	<NAME>F58</NAME>
	<OUTCOME>"Absent"</OUTCOME>
	<OUTCOME>"Present"</OUTCOME>
	<OUTCOME>"Prominent"</OUTCOME>
</VARIABLE>
<VARIABLE TYPE="nature">
	<NAME>F59</NAME>
	<OUTCOME>"Absent"</OUTCOME>
	<OUTCOME>"Present"</OUTCOME>
</VARIABLE>
<VARIABLE TYPE="nature">
	<NAME>F60</NAME>
	<OUTCOME>"Absent"</OUTCOME>
	<OUTCOME>"Present"</OUTCOME>
	<OUTCOME>"Prominent"</OUTCOME>
</VARIABLE>
<VARIABLE TYPE="nature">
	<NAME>F61</NAME>
	<OUTCOME>"Absent"</OUTCOME>
	<OUTCOME>"Few___5__"</OUTCOME>
	<OUTCOME>"Moderate__6_20__"</OUTCOME>
	<OUTCOME>"Marked__21_50__"</OUTCOME>
	<OUTCOME>"Striking__51_90__"</OUTCOME>
	<OUTCOME>"Sheets___90__"</OUTCOME>
</VARIABLE>
<VARIABLE TYPE="nature">
	<NAME>F62</NAME>
	<OUTCOME>"NA"</OUTCOME>
	<OUTCOME>"Mature"</OUTCOME>
	<OUTCOME>"Immature"</OUTCOME>
	<OUTCOME>"Blastic"</OUTCOME>
	<OUTCOME>"Pleomorphic"</OUTCOME>
	<OUTCOME>"Mixed"</OUTCOME>
</VARIABLE>
<VARIABLE TYPE="nature">
	<NAME>F63</NAME>
	<OUTCOME>"Absent"</OUTCOME>
	<OUTCOME>"Rare___6_"</OUTCOME>
	<OUTCOME>"Few__6_25_"</OUTCOME>
	<OUTCOME>"Many__26_100_"</OUTCOME>
	<OUTCOME>"Striking___100_"</OUTCOME>
</VARIABLE>
<VARIABLE TYPE="nature">
	<NAME>F64</NAME>
	<OUTCOME>"Absent"</OUTCOME>
	<OUTCOME>"Present"</OUTCOME>
</VARIABLE>
<VARIABLE TYPE="nature">
	<NAME>F65</NAME>
	<OUTCOME>"Absent"</OUTCOME>
	<OUTCOME>"Present"</OUTCOME>
</VARIABLE>
<VARIABLE TYPE="nature">
	<NAME>F66</NAME>
	<OUTCOME>"Absent"</OUTCOME>
	<OUTCOME>"Present"</OUTCOME>
</VARIABLE>
<VARIABLE TYPE="nature">
	<NAME>F67</NAME>
	<OUTCOME>"Absent"</OUTCOME>
	<OUTCOME>"Present"</OUTCOME>
</VARIABLE>
<VARIABLE TYPE="nature">
	<NAME>F68</NAME>
	<OUTCOME>"Absent"</OUTCOME>
	<OUTCOME>"Present"</OUTCOME>
</VARIABLE>
<VARIABLE TYPE="nature">
	<NAME>F69</NAME>
	<OUTCOME>"Absent"</OUTCOME>
	<OUTCOME>"Present"</OUTCOME>
</VARIABLE>
<VARIABLE TYPE="nature">
	<NAME>F72</NAME>
	<OUTCOME>"Absent"</OUTCOME>
	<OUTCOME>"Present"</OUTCOME>
</VARIABLE>
<VARIABLE TYPE="nature">
	<NAME>F86</NAME>
	<OUTCOME>"Absent"</OUTCOME>
	<OUTCOME>"Rare__1_10__"</OUTCOME>
	<OUTCOME>"Present__11_50__"</OUTCOME>
	<OUTCOME>"Many__51_70__"</OUTCOME>
</VARIABLE>
<VARIABLE TYPE="nature">
	<NAME>F70</NAME>
	<OUTCOME>"NA"</OUTCOME>
	<OUTCOME>"Scanty"</OUTCOME>
	<OUTCOME>"Mod_abund_clear"</OUTCOME>
	<OUTCOME>"Mod_abund_deep"</OUTCOME>
</VARIABLE>
<VARIABLE TYPE="nature">
	<NAME>F71</NAME>
	<OUTCOME>"NA"</OUTCOME>
	<OUTCOME>"Round"</OUTCOME>
	<OUTCOME>"Slightly_irregular"</OUTCOME>
	<OUTCOME>"Irregular"</OUTCOME>
	<OUTCOME>"Markedly_irregular"</OUTCOME>
	<OUTCOME>"Convoluted"</OUTCOME>
	<OUTCOME>"Cerebriform"</OUTCOME>
	<OUTCOME>"Multilobulated"</OUTCOME>
</VARIABLE>
<VARIABLE TYPE="nature">
	<NAME>F73</NAME>
	<OUTCOME>"Absent"</OUTCOME>
	<OUTCOME>"Rare___6_"</OUTCOME>
	<OUTCOME>"Few__6_25_"</OUTCOME>
	<OUTCOME>"Many__26_100_"</OUTCOME>
	<OUTCOME>"Striking___100_"</OUTCOME>
</VARIABLE>
<VARIABLE TYPE="nature">
	<NAME>F74</NAME>
	<OUTCOME>"Distended"</OUTCOME>
	<OUTCOME>"Patent"</OUTCOME>
	<OUTCOME>"Part_greatly_obliterated"</OUTCOME>
	<OUTCOME>"Completely_obliterated"</OUTCOME>
</VARIABLE>
<VARIABLE TYPE="nature">
	<NAME>F75</NAME>
	<OUTCOME>"No"</OUTCOME>
	<OUTCOME>"Yes"</OUTCOME>
</VARIABLE>
<VARIABLE TYPE="nature">
	<NAME>F76</NAME>
	<OUTCOME>"Absent"</OUTCOME>
	<OUTCOME>"Slight"</OUTCOME>
	<OUTCOME>"Moderate"</OUTCOME>
	<OUTCOME>"Marked"</OUTCOME>
	<OUTCOME>"Pronounced"</OUTCOME>
</VARIABLE>
<VARIABLE TYPE="nature">
	<NAME>F77</NAME>
	<OUTCOME>"Absent"</OUTCOME>
	<OUTCOME>"Present"</OUTCOME>
</VARIABLE>
<VARIABLE TYPE="nature">
	<NAME>F79</NAME>
	<OUTCOME>"Absent"</OUTCOME>
	<OUTCOME>"Present"</OUTCOME>
	<OUTCOME>"Prominent"</OUTCOME>
</VARIABLE>
<VARIABLE TYPE="nature">
	<NAME>F80</NAME>
	<OUTCOME>"Absent"</OUTCOME>
	<OUTCOME>"Present"</OUTCOME>
</VARIABLE>
<VARIABLE TYPE="nature">
	<NAME>F81</NAME>
	<OUTCOME>"NA"</OUTCOME>
	<OUTCOME>"Sparse__1_10__"</OUTCOME>
	<OUTCOME>"Moderate__11_50__"</OUTCOME>
	<OUTCOME>"Numerous__51_90__"</OUTCOME>
	<OUTCOME>"Striking___90__"</OUTCOME>
</VARIABLE>
<VARIABLE TYPE="nature">
	<NAME>F82</NAME>
	<OUTCOME>"NA"</OUTCOME>
	<OUTCOME>"Sparse___10__"</OUTCOME>
	<OUTCOME>"Moderate__11_50__"</OUTCOME>
	<OUTCOME>"Numerous__51_90__"</OUTCOME>
	<OUTCOME>"Striking___90__"</OUTCOME>
</VARIABLE>
<VARIABLE TYPE="nature">
	<NAME>F87</NAME>
	<OUTCOME>"Absent"</OUTCOME>
	<OUTCOME>"Present"</OUTCOME>
</VARIABLE>
<VARIABLE TYPE="nature">
	<NAME>F88</NAME>
	<OUTCOME>"Absent"</OUTCOME>
	<OUTCOME>"Present"</OUTCOME>
</VARIABLE>
<VARIABLE TYPE="nature">
	<NAME>F89</NAME>
	<OUTCOME>"Absent"</OUTCOME>
	<OUTCOME>"Present"</OUTCOME>
</VARIABLE>
<VARIABLE TYPE="nature">
	<NAME>F91</NAME>
	<OUTCOME>"Absent"</OUTCOME>
	<OUTCOME>"Present"</OUTCOME>
</VARIABLE>
<VARIABLE TYPE="nature">
	<NAME>F93</NAME>
	<OUTCOME>"No"</OUTCOME>
	<OUTCOME>"Yes"</OUTCOME>
</VARIABLE>
<VARIABLE TYPE="nature">
	<NAME>F94</NAME>
	<OUTCOME>"NA"</OUTCOME>
	<OUTCOME>"No_nucleoli"</OUTCOME>
	<OUTCOME>"x1_small"</OUTCOME>
	<OUTCOME>"x1_prominent__central_"</OUTCOME>
	<OUTCOME>"x_1_central"</OUTCOME>
	<OUTCOME>"x_1_peripheral"</OUTCOME>
</VARIABLE>
<VARIABLE TYPE="nature">
	<NAME>F95</NAME>
	<OUTCOME>"NA"</OUTCOME>
	<OUTCOME>"Clumped"</OUTCOME>
	<OUTCOME>"Vesicular"</OUTCOME>
	<OUTCOME>"Fine_and_delicate"</OUTCOME>
	<OUTCOME>"Plasmacytoid"</OUTCOME>
</VARIABLE>
<VARIABLE TYPE="nature">
	<NAME>F99</NAME>
	<OUTCOME>"NA"</OUTCOME>
	<OUTCOME>"Back_to_back"</OUTCOME>
	<OUTCOME>"Closely_packed"</OUTCOME>
	<OUTCOME>"Separated"</OUTCOME>
	<OUTCOME>"Far_apart"</OUTCOME>
</VARIABLE>
<VARIABLE TYPE="nature">
	<NAME>F100</NAME>
	<OUTCOME>"NA"</OUTCOME>
	<OUTCOME>"Absent"</OUTCOME>
	<OUTCOME>"Slight__1_15_"</OUTCOME>
	<OUTCOME>"Moderate__16_30_"</OUTCOME>
	<OUTCOME>"Marked___30_"</OUTCOME>
</VARIABLE>
<VARIABLE TYPE="nature">
	<NAME>F105</NAME>
	<OUTCOME>"NA"</OUTCOME>
	<OUTCOME>"Absent"</OUTCOME>
	<OUTCOME>"Present"</OUTCOME>
</VARIABLE>
<VARIABLE TYPE="nature">
	<NAME>F101</NAME>
	<OUTCOME>"NA"</OUTCOME>
	<OUTCOME>"Some_fusion"</OUTCOME>
	<OUTCOME>"Form__4_nod_in_4sqcm"</OUTCOME>
	<OUTCOME>"Form_1_4_nod_in_4sqcm"</OUTCOME>
	<OUTCOME>"Most_thick___10_cells_"</OUTCOME>
	<OUTCOME>"Most_completely_encircle"</OUTCOME>
	<OUTCOME>"Most_partially_encircle"</OUTCOME>
	<OUTCOME>"Most_absent"</OUTCOME>
</VARIABLE>
<VARIABLE TYPE="nature">
	<NAME>F102</NAME>
	<OUTCOME>"NA"</OUTCOME>
	<OUTCOME>"Absent"</OUTCOME>
	<OUTCOME>"Present"</OUTCOME>
</VARIABLE>
<VARIABLE TYPE="nature">
	<NAME>F103</NAME>
	<OUTCOME>"NA"</OUTCOME>
	<OUTCOME>"Almost_all_well_def"</OUTCOME>
	<OUTCOME>"Both_well_and_poor_def"</OUTCOME>
	<OUTCOME>"Almost_all_poor_def"</OUTCOME>
</VARIABLE>
<VARIABLE TYPE="nature">
	<NAME>F104</NAME>
	<OUTCOME>"NA"</OUTCOME>
	<OUTCOME>"x0_20"</OUTCOME>
	<OUTCOME>"x21_50"</OUTCOME>
	<OUTCOME>"x_50"</OUTCOME>
</VARIABLE>
<VARIABLE TYPE="nature">
	<NAME>F106</NAME>
	<OUTCOME>"NA"</OUTCOME>
	<OUTCOME>"Yes"</OUTCOME>
	<OUTCOME>"Some_similar"</OUTCOME>
	<OUTCOME>"None_similar"</OUTCOME>
</VARIABLE>
<VARIABLE TYPE="nature">
	<NAME>F107</NAME>
	<OUTCOME>"NA"</OUTCOME>
	<OUTCOME>"No"</OUTCOME>
	<OUTCOME>"Yes"</OUTCOME>
</VARIABLE>
<VARIABLE TYPE="nature">
	<NAME>F108</NAME>
	<OUTCOME>"Absent"</OUTCOME>
	<OUTCOME>"Present"</OUTCOME>
</VARIABLE>
<DEFINITION>
	<FOR>Fault</FOR>
	<TABLE>0.02075119 0.00103756 0.01037560 0.00363146 0.01037560 0.03112679 0.00435775 0.00207512 0.01556339 0.00415024 0.00726292 0.00622536 0.01037560 0.01296950 0.00830048 0.01328076 0.00207512 0.00207512 0.00124507 0.01556339 0.00259390 0.00726292 0.00830048 0.01037560 0.00207512 0.01037560 0.00415024 0.08300477 0.00518780 0.00415024 0.05187798 0.00415024 0.00518780 0.00518780 0.10375597 0.05706578 0.03112679 0.00518780 0.02075119 0.01037560 0.01037560 0.00415024 0.01037560 0.13488276 0.01556339 0.02075119 0.01556339 0.00103756 0.01037560 0.06225358 0.00166010 0.00166010 0.00207512 0.00622536 0.00259390 0.00020751 0.02075119 0.00830048 0.00332019 0.00830048 0.00311268 0.02075119 0.02075119 </TABLE>
</DEFINITION>

<DEFINITION>
	<FOR>F1</FOR>
	<GIVEN>Fault</GIVEN>
	<TABLE>1.00000000 0.00000000 1.00000000 0.00000000 1.00000000 0.00000000 1.00000000 0.00000000 1.00000000 0.00000000 1.00000000 0.00000000 1.00000000 0.00000000 1.00000000 0.00000000 1.00000000 0.00000000 1.00000000 0.00000000 1.00000000 0.00000000 1.00000000 0.00000000 1.00000000 0.00000000 1.00000000 0.00000000 1.00000000 0.00000000 1.00000000 0.00000000 1.00000000 0.00000000 1.00000000 0.00000000 1.00000000 0.00000000 1.00000000 0.00000000 1.00000000 0.00000000 1.00000000 0.00000000 0.10000000 0.90000000 1.00000000 0.00000000 1.00000000 0.00000000 1.00000000 0.00000000 1.00000000 0.00000000 1.00000000 0.00000000 1.00000000 0.00000000 1.00000000 0.00000000 1.00000000 0.00000000 1.00000000 0.00000000 1.00000000 0.00000000 1.00000000 0.00000000 1.00000000 0.00000000 1.00000000 0.00000000 1.00000000 0.00000000 1.00000000 0.00000000 1.00000000 0.00000000 1.00000000 0.00000000 1.00000000 0.00000000 1.00000000 0.00000000 1.00000000 0.00000000 1.00000000 0.00000000 1.00000000 0.00000000 1.00000000 0.00000000 1.00000000 0.00000000 1.00000000 0.00000000 1.00000000 0.00000000 1.00000000 0.00000000 1.00000000 0.00000000 1.00000000 0.00000000 1.00000000 0.00000000 1.00000000 0.00000000 1.00000000 0.00000000 1.00000000 0.00000000 1.00000000 0.00000000 1.00000000 0.00000000 1.00000000 0.00000000 1.00000000 0.00000000 1.00000000 0.00000000 1.00000000 0.00000000 1.00000000 0.00000000 </TABLE>
</DEFINITION>

<DEFINITION>
	<FOR>F97</FOR>
	<GIVEN>Fault</GIVEN>
	<TABLE>0.00000000 1.00000000 0.99000000 0.01000000 0.90000000 0.10000000 0.01000000 0.99000000 0.01000000 0.99000000 0.00000000 1.00000000 0.00000000 1.00000000 0.00000000 1.00000000 0.01000000 0.99000000 0.01000000 0.99000000 0.01000000 0.99000000 0.90000000 0.10000000 0.01000000 0.99000000 0.00000000 1.00000000 0.01000000 0.99000000 0.01000000 0.99000000 0.00000000 1.00000000 0.90000000 0.10000000 0.01000000 0.99000000 0.01000000 0.99000000 0.00000000 1.00000000 0.00000000 1.00000000 0.90000000 0.10000000 0.01000000 0.99000000 0.01000000 0.99000000 0.99000000 0.01000000 0.99000000 0.01000000 0.80000000 0.20000000 0.80000000 0.20000000 0.80000000 0.20000000 0.80000000 0.20000000 0.00000000 1.00000000 0.99900000 0.00100000 0.99900000 0.00100000 0.00000000 1.00000000 0.00000000 1.00000000 0.00000000 1.00000000 0.00000000 1.00000000 0.95000000 0.05000000 0.99900000 0.00100000 0.01000000 0.99000000 0.99900000 0.00100000 0.99900000 0.00100000 0.99900000 0.00100000 0.99900000 0.00100000 0.80000000 0.20000000 0.99900000 0.00100000 0.99900000 0.00100000 0.95000000 0.05000000 0.99900000 0.00100000 0.99900000 0.00100000 0.99900000 0.00100000 0.20000000 0.80000000 0.20000000 0.80000000 0.20000000 0.80000000 0.20000000 0.80000000 0.20000000 0.80000000 0.20000000 0.80000000 0.99000000 0.01000000 0.99000000 0.01000000 0.99000000 0.01000000 0.05000000 0.95000000 0.99900000 0.00100000 </TABLE>
</DEFINITION>

<DEFINITION>
	<FOR>F2</FOR>
	<GIVEN>Fault</GIVEN>
	<GIVEN>F97</GIVEN>
	<TABLE>1.00000000 0.00000000 0.00000000 0.00000000 0.99000000 0.01000000 1.00000000 0.00000000 0.00000000 0.00000000 0.30000000 0.70000000 1.00000000 0.00000000 0.00000000 0.00000000 0.99000000 0.01000000 1.00000000 0.00000000 0.00000000 0.00000000 0.99000000 0.01000000 1.00000000 0.00000000 0.00000000 0.00000000 0.99000000 0.01000000 1.00000000 0.00000000 0.00000000 0.00000000 0.99000000 0.01000000 1.00000000 0.00000000 0.00000000 0.00000000 0.00000000 1.00000000 1.00000000 0.00000000 0.00000000 0.00000000 0.99000000 0.01000000 1.00000000 0.00000000 0.00000000 0.00000000 0.99000000 0.01000000 1.00000000 0.00000000 0.00000000 0.00000000 0.99000000 0.01000000 1.00000000 0.00000000 0.00000000 0.00000000 0.99000000 0.01000000 1.00000000 0.00000000 0.00000000 0.00000000 0.99000000 0.01000000 1.00000000 0.00000000 0.00000000 0.00000000 0.99000000 0.01000000 1.00000000 0.00000000 0.00000000 0.00000000 0.05000000 0.95000000 1.00000000 0.00000000 0.00000000 0.00000000 0.99000000 0.01000000 1.00000000 0.00000000 0.00000000 0.00000000 0.99000000 0.01000000 1.00000000 0.00000000 0.00000000 0.00000000 0.99000000 0.01000000 1.00000000 0.00000000 0.00000000 0.00000000 0.99000000 0.01000000 1.00000000 0.00000000 0.00000000 0.00000000 0.99000000 0.01000000 1.00000000 0.00000000 0.00000000 0.00000000 0.99000000 0.01000000 1.00000000 0.00000000 0.00000000 0.00000000 0.99000000 0.01000000 1.00000000 0.00000000 0.00000000 0.00000000 0.99000000 0.01000000 1.00000000 0.00000000 0.00000000 0.00000000 0.99000000 0.01000000 1.00000000 0.00000000 0.00000000 0.00000000 0.99000000 0.01000000 1.00000000 0.00000000 0.00000000 0.00000000 0.99000000 0.01000000 1.00000000 0.00000000 0.00000000 0.00000000 0.99000000 0.01000000 1.00000000 0.00000000 0.00000000 0.00000000 0.99000000 0.01000000 1.00000000 0.00000000 0.00000000 0.00000000 0.99000000 0.01000000 1.00000000 0.00000000 0.00000000 0.00000000 0.99000000 0.01000000 1.00000000 0.00000000 0.00000000 0.00000000 0.99000000 0.01000000 1.00000000 0.00000000 0.00000000 0.00000000 0.99000000 0.01000000 1.00000000 0.00000000 0.00000000 0.00000000 0.99000000 0.01000000 1.00000000 0.00000000 0.00000000 0.00000000 0.99000000 0.01000000 1.00000000 0.00000000 0.00000000 0.00000000 0.99000000 0.01000000 1.00000000 0.00000000 0.00000000 0.00000000 0.99999000 0.00001000 1.00000000 0.00000000 0.00000000 0.00000000 0.99999000 0.00001000 1.00000000 0.00000000 0.00000000 0.00000000 0.99999000 0.00001000 1.00000000 0.00000000 0.00000000 0.00000000 0.99999000 0.00001000 1.00000000 0.00000000 0.00000000 0.00000000 0.99000000 0.01000000 1.00000000 0.00000000 0.00000000 0.00000000 0.99000000 0.01000000 1.00000000 0.00000000 0.00000000 0.00000000 0.01000000 0.99000000 1.00000000 0.00000000 0.00000000 0.00000000 0.99000000 0.01000000 1.00000000 0.00000000 0.00000000 0.00000000 0.99000000 0.01000000 1.00000000 0.00000000 0.00000000 0.00000000 0.99000000 0.01000000 1.00000000 0.00000000 0.00000000 0.00000000 0.99000000 0.01000000 1.00000000 0.00000000 0.00000000 0.00000000 0.99000000 0.01000000 1.00000000 0.00000000 0.00000000 0.00000000 0.30000000 0.70000000 1.00000000 0.00000000 0.00000000 0.00000000 0.99000000 0.01000000 1.00000000 0.00000000 0.00000000 0.00000000 0.99000000 0.01000000 1.00000000 0.00000000 0.00000000 0.00000000 0.99000000 0.01000000 1.00000000 0.00000000 0.00000000 0.00000000 0.99000000 0.01000000 1.00000000 0.00000000 0.00000000 0.00000000 0.99000000 0.01000000 1.00000000 0.00000000 0.00000000 0.00000000 0.99000000 0.01000000 1.00000000 0.00000000 0.00000000 0.00000000 0.99000000 0.01000000 1.00000000 0.00000000 0.00000000 0.00000000 0.99000000 0.01000000 1.00000000 0.00000000 0.00000000 0.00000000 0.99000000 0.01000000 1.00000000 0.00000000 0.00000000 0.00000000 0.99000000 0.01000000 1.00000000 0.00000000 0.00000000 0.00000000 0.99000000 0.01000000 1.00000000 0.00000000 0.00000000 0.00000000 0.99000000 0.01000000 1.00000000 0.00000000 0.00000000 0.00000000 0.01000000 0.99000000 1.00000000 0.00000000 0.00000000 0.00000000 0.99000000 0.01000000 1.00000000 0.00000000 0.00000000 0.00000000 0.01000000 0.99000000 1.00000000 0.00000000 0.00000000 0.00000000 0.99000000 0.01000000 </TABLE>
</DEFINITION>

<DEFINITION>
	<FOR>F78</FOR>
	<GIVEN>Fault</GIVEN>
	<GIVEN>F97</GIVEN>
	<TABLE>1.00000000 0.00000000 0.00000000 0.00000000 0.65000000 0.35000000 1.00000000 0.00000000 0.00000000 0.00000000 0.99900000 0.00100000 1.00000000 0.00000000 0.00000000 0.00000000 0.99900000 0.00100000 1.00000000 0.00000000 0.00000000 0.00000000 0.99900000 0.00100000 1.00000000 0.00000000 0.00000000 0.00000000 0.99900000 0.00100000 1.00000000 0.00000000 0.00000000 0.00000000 0.98000000 0.02000000 1.00000000 0.00000000 0.00000000 0.00000000 0.99900000 0.00100000 1.00000000 0.00000000 0.00000000 0.00000000 0.99900000 0.00100000 1.00000000 0.00000000 0.00000000 0.00000000 0.99900000 0.00100000 1.00000000 0.00000000 0.00000000 0.00000000 0.99900000 0.00100000 1.00000000 0.00000000 0.00000000 0.00000000 0.99900000 0.00100000 1.00000000 0.00000000 0.00000000 0.00000000 0.99900000 0.00100000 1.00000000 0.00000000 0.00000000 0.00000000 0.99900000 0.00100000 1.00000000 0.00000000 0.00000000 0.00000000 0.99900000 0.00100000 1.00000000 0.00000000 0.00000000 0.00000000 0.99900000 0.00100000 1.00000000 0.00000000 0.00000000 0.00000000 0.99900000 0.00100000 1.00000000 0.00000000 0.00000000 0.00000000 0.99900000 0.00100000 1.00000000 0.00000000 0.00000000 0.00000000 0.99900000 0.00100000 1.00000000 0.00000000 0.00000000 0.00000000 0.99900000 0.00100000 1.00000000 0.00000000 0.00000000 0.00000000 0.99900000 0.00100000 1.00000000 0.00000000 0.00000000 0.00000000 0.99900000 0.00100000 1.00000000 0.00000000 0.00000000 0.00000000 0.99900000 0.00100000 1.00000000 0.00000000 0.00000000 0.00000000 0.99900000 0.00100000 1.00000000 0.00000000 0.00000000 0.00000000 0.99900000 0.00100000 1.00000000 0.00000000 0.00000000 0.00000000 0.99900000 0.00100000 1.00000000 0.00000000 0.00000000 0.00000000 0.99900000 0.00100000 1.00000000 0.00000000 0.00000000 0.00000000 0.99900000 0.00100000 1.00000000 0.00000000 0.00000000 0.00000000 0.99900000 0.00100000 1.00000000 0.00000000 0.00000000 0.00000000 0.99900000 0.00100000 1.00000000 0.00000000 0.00000000 0.00000000 0.99900000 0.00100000 1.00000000 0.00000000 0.00000000 0.00000000 0.99900000 0.00100000 1.00000000 0.00000000 0.00000000 0.00000000 0.99900000 0.00100000 1.00000000 0.00000000 0.00000000 0.00000000 0.99900000 0.00100000 1.00000000 0.00000000 0.00000000 0.00000000 0.99900000 0.00100000 1.00000000 0.00000000 0.00000000 0.00000000 0.99900000 0.00100000 1.00000000 0.00000000 0.00000000 0.00000000 0.99900000 0.00100000 1.00000000 0.00000000 0.00000000 0.00000000 0.99900000 0.00100000 1.00000000 0.00000000 0.00000000 0.00000000 0.99900000 0.00100000 1.00000000 0.00000000 0.00000000 0.00000000 0.99900000 0.00100000 1.00000000 0.00000000 0.00000000 0.00000000 0.99900000 0.00100000 1.00000000 0.00000000 0.00000000 0.00000000 0.99900000 0.00100000 1.00000000 0.00000000 0.00000000 0.00000000 0.99900000 0.00100000 1.00000000 0.00000000 0.00000000 0.00000000 0.99900000 0.00100000 1.00000000 0.00000000 0.00000000 0.00000000 0.99900000 0.00100000 1.00000000 0.00000000 0.00000000 0.00000000 0.99900000 0.00100000 1.00000000 0.00000000 0.00000000 0.00000000 0.99900000 0.00100000 1.00000000 0.00000000 0.00000000 0.00000000 0.99900000 0.00100000 1.00000000 0.00000000 0.00000000 0.00000000 0.99900000 0.00100000 1.00000000 0.00000000 0.00000000 0.00000000 0.99900000 0.00100000 1.00000000 0.00000000 0.00000000 0.00000000 0.99900000 0.00100000 1.00000000 0.00000000 0.00000000 0.00000000 0.99900000 0.00100000 1.00000000 0.00000000 0.00000000 0.00000000 0.99900000 0.00100000 1.00000000 0.00000000 0.00000000 0.00000000 0.99900000 0.00100000 1.00000000 0.00000000 0.00000000 0.00000000 0.99900000 0.00100000 1.00000000 0.00000000 0.00000000 0.00000000 0.99900000 0.00100000 1.00000000 0.00000000 0.00000000 0.00000000 0.99900000 0.00100000 1.00000000 0.00000000 0.00000000 0.00000000 0.99900000 0.00100000 1.00000000 0.00000000 0.00000000 0.00000000 0.99900000 0.00100000 1.00000000 0.00000000 0.00000000 0.00000000 0.99900000 0.00100000 1.00000000 0.00000000 0.00000000 0.00000000 0.99900000 0.00100000 1.00000000 0.00000000 0.00000000 0.00000000 0.99900000 0.00100000 1.00000000 0.00000000 0.00000000 0.00000000 0.90000000 0.10000000 1.00000000 0.00000000 0.00000000 0.00000000 0.99900000 0.00100000 </TABLE>
</DEFINITION>

<DEFINITION>
	<FOR>F3</FOR>
	<GIVEN>Fault</GIVEN>
	<GIVEN>F97</GIVEN>
	<GIVEN>F78</GIVEN>
	<TABLE>1.00000000 0.00000000 0.00000000 1.00000000 0.00000000 0.00000000 1.00000000 0.00000000 0.00000000 1.00000000 0.00000000 0.00000000 0.00000000 0.80000000 0.20000000 0.00000000 0.70000000 0.30000000 1.00000000 0.00000000 0.00000000 1.00000000 0.00000000 0.00000000 1.00000000 0.00000000 0.00000000 1.00000000 0.00000000 0.00000000 0.00000000 0.99990001 0.00009999 0.00000000 0.99990001 0.00009999 1.00000000 0.00000000 0.00000000 1.00000000 0.00000000 0.00000000 1.00000000 0.00000000 0.00000000 1.00000000 0.00000000 0.00000000 0.00000000 0.99990001 0.00009999 0.00000000 0.99990001 0.00009999 1.00000000 0.00000000 0.00000000 1.00000000 0.00000000 0.00000000 1.00000000 0.00000000 0.00000000 1.00000000 0.00000000 0.00000000 0.00000000 0.99990001 0.00009999 0.00000000 0.99990001 0.00009999 1.00000000 0.00000000 0.00000000 1.00000000 0.00000000 0.00000000 1.00000000 0.00000000 0.00000000 1.00000000 0.00000000 0.00000000 0.00000000 0.99990001 0.00009999 0.00000000 0.99990001 0.00009999 1.00000000 0.00000000 0.00000000 1.00000000 0.00000000 0.00000000 1.00000000 0.00000000 0.00000000 1.00000000 0.00000000 0.00000000 0.00000000 0.95000000 0.05000000 0.00000000 0.90000000 0.10000000 1.00000000 0.00000000 0.00000000 1.00000000 0.00000000 0.00000000 1.00000000 0.00000000 0.00000000 1.00000000 0.00000000 0.00000000 0.00000000 0.99990001 0.00009999 0.00000000 0.99990001 0.00009999 1.00000000 0.00000000 0.00000000 1.00000000 0.00000000 0.00000000 1.00000000 0.00000000 0.00000000 1.00000000 0.00000000 0.00000000 0.00000000 0.99990001 0.00009999 0.00000000 0.99990001 0.00009999 1.00000000 0.00000000 0.00000000 1.00000000 0.00000000 0.00000000 1.00000000 0.00000000 0.00000000 1.00000000 0.00000000 0.00000000 0.00000000 0.99990001 0.00009999 0.00000000 0.99990001 0.00009999 1.00000000 0.00000000 0.00000000 1.00000000 0.00000000 0.00000000 1.00000000 0.00000000 0.00000000 1.00000000 0.00000000 0.00000000 0.00000000 0.99990001 0.00009999 0.00000000 0.99990001 0.00009999 1.00000000 0.00000000 0.00000000 1.00000000 0.00000000 0.00000000 1.00000000 0.00000000 0.00000000 1.00000000 0.00000000 0.00000000 0.00000000 0.99990001 0.00009999 0.00000000 0.99990001 0.00009999 1.00000000 0.00000000 0.00000000 1.00000000 0.00000000 0.00000000 1.00000000 0.00000000 0.00000000 1.00000000 0.00000000 0.00000000 0.00000000 0.99990001 0.00009999 0.00000000 0.99990001 0.00009999 1.00000000 0.00000000 0.00000000 1.00000000 0.00000000 0.00000000 1.00000000 0.00000000 0.00000000 1.00000000 0.00000000 0.00000000 0.00000000 0.99990001 0.00009999 0.00000000 0.99990001 0.00009999 1.00000000 0.00000000 0.00000000 1.00000000 0.00000000 0.00000000 1.00000000 0.00000000 0.00000000 1.00000000 0.00000000 0.00000000 0.00000000 0.99990001 0.00009999 0.00000000 0.99990001 0.00009999 1.00000000 0.00000000 0.00000000 1.00000000 0.00000000 0.00000000 1.00000000 0.00000000 0.00000000 1.00000000 0.00000000 0.00000000 0.00000000 0.99990001 0.00009999 0.00000000 0.99990001 0.00009999 1.00000000 0.00000000 0.00000000 1.00000000 0.00000000 0.00000000 1.00000000 0.00000000 0.00000000 1.00000000 0.00000000 0.00000000 0.00000000 0.99990001 0.00009999 0.00000000 0.99990001 0.00009999 1.00000000 0.00000000 0.00000000 1.00000000 0.00000000 0.00000000 1.00000000 0.00000000 0.00000000 1.00000000 0.00000000 0.00000000 0.00000000 0.99990001 0.00009999 0.00000000 0.99990001 0.00009999 1.00000000 0.00000000 0.00000000 1.00000000 0.00000000 0.00000000 1.00000000 0.00000000 0.00000000 1.00000000 0.00000000 0.00000000 0.00000000 0.99990001 0.00009999 0.00000000 0.99990001 0.00009999 1.00000000 0.00000000 0.00000000 1.00000000 0.00000000 0.00000000 1.00000000 0.00000000 0.00000000 1.00000000 0.00000000 0.00000000 0.00000000 0.99990001 0.00009999 0.00000000 0.99990001 0.00009999 1.00000000 0.00000000 0.00000000 1.00000000 0.00000000 0.00000000 1.00000000 0.00000000 0.00000000 1.00000000 0.00000000 0.00000000 0.00000000 0.99990001 0.00009999 0.00000000 0.99990001 0.00009999 1.00000000 0.00000000 0.00000000 1.00000000 0.00000000 0.00000000 1.00000000 0.00000000 0.00000000 1.00000000 0.00000000 0.00000000 0.00000000 0.99990001 0.00009999 0.00000000 0.99990001 0.00009999 1.00000000 0.00000000 0.00000000 1.00000000 0.00000000 0.00000000 1.00000000 0.00000000 0.00000000 1.00000000 0.00000000 0.00000000 0.00000000 0.99990001 0.00009999 0.00000000 0.99990001 0.00009999 1.00000000 0.00000000 0.00000000 1.00000000 0.00000000 0.00000000 1.00000000 0.00000000 0.00000000 1.00000000 0.00000000 0.00000000 0.00000000 0.99990001 0.00009999 0.00000000 0.99990001 0.00009999 1.00000000 0.00000000 0.00000000 1.00000000 0.00000000 0.00000000 1.00000000 0.00000000 0.00000000 1.00000000 0.00000000 0.00000000 0.00000000 0.99990001 0.00009999 0.00000000 0.99990001 0.00009999 1.00000000 0.00000000 0.00000000 1.00000000 0.00000000 0.00000000 1.00000000 0.00000000 0.00000000 1.00000000 0.00000000 0.00000000 0.00000000 0.99990001 0.00009999 0.00000000 0.99990001 0.00009999 1.00000000 0.00000000 0.00000000 1.00000000 0.00000000 0.00000000 1.00000000 0.00000000 0.00000000 1.00000000 0.00000000 0.00000000 0.00000000 0.99990001 0.00009999 0.00000000 0.99990001 0.00009999 1.00000000 0.00000000 0.00000000 1.00000000 0.00000000 0.00000000 1.00000000 0.00000000 0.00000000 1.00000000 0.00000000 0.00000000 0.00000000 0.99990001 0.00009999 0.00000000 0.99990001 0.00009999 1.00000000 0.00000000 0.00000000 1.00000000 0.00000000 0.00000000 1.00000000 0.00000000 0.00000000 1.00000000 0.00000000 0.00000000 0.00000000 0.99990001 0.00009999 0.00000000 0.99990001 0.00009999 1.00000000 0.00000000 0.00000000 1.00000000 0.00000000 0.00000000 1.00000000 0.00000000 0.00000000 1.00000000 0.00000000 0.00000000 0.00000000 0.99990001 0.00009999 0.00000000 0.99990001 0.00009999 1.00000000 0.00000000 0.00000000 1.00000000 0.00000000 0.00000000 1.00000000 0.00000000 0.00000000 1.00000000 0.00000000 0.00000000 0.00000000 0.99990001 0.00009999 0.00000000 0.99990001 0.00009999 1.00000000 0.00000000 0.00000000 1.00000000 0.00000000 0.00000000 1.00000000 0.00000000 0.00000000 1.00000000 0.00000000 0.00000000 0.00000000 0.99990001 0.00009999 0.00000000 0.99990001 0.00009999 1.00000000 0.00000000 0.00000000 1.00000000 0.00000000 0.00000000 1.00000000 0.00000000 0.00000000 1.00000000 0.00000000 0.00000000 0.00000000 0.99990001 0.00009999 0.00000000 0.99990001 0.00009999 1.00000000 0.00000000 0.00000000 1.00000000 0.00000000 0.00000000 1.00000000 0.00000000 0.00000000 1.00000000 0.00000000 0.00000000 0.00000000 0.99990001 0.00009999 0.00000000 0.99990001 0.00009999 1.00000000 0.00000000 0.00000000 1.00000000 0.00000000 0.00000000 1.00000000 0.00000000 0.00000000 1.00000000 0.00000000 0.00000000 0.00000000 0.99990001 0.00009999 0.00000000 0.99990001 0.00009999 1.00000000 0.00000000 0.00000000 1.00000000 0.00000000 0.00000000 1.00000000 0.00000000 0.00000000 1.00000000 0.00000000 0.00000000 0.00000000 0.99990001 0.00009999 0.00000000 0.99990001 0.00009999 1.00000000 0.00000000 0.00000000 1.00000000 0.00000000 0.00000000 1.00000000 0.00000000 0.00000000 1.00000000 0.00000000 0.00000000 0.00000000 0.99990001 0.00009999 0.00000000 0.99990001 0.00009999 1.00000000 0.00000000 0.00000000 1.00000000 0.00000000 0.00000000 1.00000000 0.00000000 0.00000000 1.00000000 0.00000000 0.00000000 0.00000000 0.99990001 0.00009999 0.00000000 0.99990001 0.00009999 1.00000000 0.00000000 0.00000000 1.00000000 0.00000000 0.00000000 1.00000000 0.00000000 0.00000000 1.00000000 0.00000000 0.00000000 0.00000000 0.99990001 0.00009999 0.00000000 0.99990001 0.00009999 1.00000000 0.00000000 0.00000000 1.00000000 0.00000000 0.00000000 1.00000000 0.00000000 0.00000000 1.00000000 0.00000000 0.00000000 0.00000000 0.99990001 0.00009999 0.00000000 0.99990001 0.00009999 1.00000000 0.00000000 0.00000000 1.00000000 0.00000000 0.00000000 1.00000000 0.00000000 0.00000000 1.00000000 0.00000000 0.00000000 0.00000000 0.99990001 0.00009999 0.00000000 0.99990001 0.00009999 1.00000000 0.00000000 0.00000000 1.00000000 0.00000000 0.00000000 1.00000000 0.00000000 0.00000000 1.00000000 0.00000000 0.00000000 0.00000000 0.99990001 0.00009999 0.00000000 0.99990001 0.00009999 1.00000000 0.00000000 0.00000000 1.00000000 0.00000000 0.00000000 1.00000000 0.00000000 0.00000000 1.00000000 0.00000000 0.00000000 0.00000000 0.99990001 0.00009999 0.00000000 0.99990001 0.00009999 1.00000000 0.00000000 0.00000000 1.00000000 0.00000000 0.00000000 1.00000000 0.00000000 0.00000000 1.00000000 0.00000000 0.00000000 0.00000000 0.99990001 0.00009999 0.00000000 0.99990001 0.00009999 1.00000000 0.00000000 0.00000000 1.00000000 0.00000000 0.00000000 1.00000000 0.00000000 0.00000000 1.00000000 0.00000000 0.00000000 0.00000000 0.99990001 0.00009999 0.00000000 0.99990001 0.00009999 1.00000000 0.00000000 0.00000000 1.00000000 0.00000000 0.00000000 1.00000000 0.00000000 0.00000000 1.00000000 0.00000000 0.00000000 0.00000000 0.99990001 0.00009999 0.00000000 0.99990001 0.00009999 1.00000000 0.00000000 0.00000000 1.00000000 0.00000000 0.00000000 1.00000000 0.00000000 0.00000000 1.00000000 0.00000000 0.00000000 0.00000000 0.99990001 0.00009999 0.00000000 0.99990001 0.00009999 1.00000000 0.00000000 0.00000000 1.00000000 0.00000000 0.00000000 1.00000000 0.00000000 0.00000000 1.00000000 0.00000000 0.00000000 0.00000000 0.99990001 0.00009999 0.00000000 0.99990001 0.00009999 1.00000000 0.00000000 0.00000000 1.00000000 0.00000000 0.00000000 1.00000000 0.00000000 0.00000000 1.00000000 0.00000000 0.00000000 0.00000000 0.99990001 0.00009999 0.00000000 0.99990001 0.00009999 1.00000000 0.00000000 0.00000000 1.00000000 0.00000000 0.00000000 1.00000000 0.00000000 0.00000000 1.00000000 0.00000000 0.00000000 0.00000000 0.99990001 0.00009999 0.00000000 0.99990001 0.00009999 1.00000000 0.00000000 0.00000000 1.00000000 0.00000000 0.00000000 1.00000000 0.00000000 0.00000000 1.00000000 0.00000000 0.00000000 0.00000000 0.99990001 0.00009999 0.00000000 0.99990001 0.00009999 1.00000000 0.00000000 0.00000000 1.00000000 0.00000000 0.00000000 1.00000000 0.00000000 0.00000000 1.00000000 0.00000000 0.00000000 0.00000000 0.99990001 0.00009999 0.00000000 0.99990001 0.00009999 1.00000000 0.00000000 0.00000000 1.00000000 0.00000000 0.00000000 1.00000000 0.00000000 0.00000000 1.00000000 0.00000000 0.00000000 0.00000000 0.99990001 0.00009999 0.00000000 0.99990001 0.00009999 1.00000000 0.00000000 0.00000000 1.00000000 0.00000000 0.00000000 1.00000000 0.00000000 0.00000000 1.00000000 0.00000000 0.00000000 0.00000000 0.99990001 0.00009999 0.00000000 0.99990001 0.00009999 1.00000000 0.00000000 0.00000000 1.00000000 0.00000000 0.00000000 1.00000000 0.00000000 0.00000000 1.00000000 0.00000000 0.00000000 0.00000000 0.99990001 0.00009999 0.00000000 0.99990001 0.00009999 1.00000000 0.00000000 0.00000000 1.00000000 0.00000000 0.00000000 1.00000000 0.00000000 0.00000000 1.00000000 0.00000000 0.00000000 0.00000000 0.99990001 0.00009999 0.00000000 0.99990001 0.00009999 1.00000000 0.00000000 0.00000000 1.00000000 0.00000000 0.00000000 1.00000000 0.00000000 0.00000000 1.00000000 0.00000000 0.00000000 0.00000000 0.99990001 0.00009999 0.00000000 0.99990001 0.00009999 1.00000000 0.00000000 0.00000000 1.00000000 0.00000000 0.00000000 1.00000000 0.00000000 0.00000000 1.00000000 0.00000000 0.00000000 0.00000000 0.99990001 0.00009999 0.00000000 0.99990001 0.00009999 1.00000000 0.00000000 0.00000000 1.00000000 0.00000000 0.00000000 1.00000000 0.00000000 0.00000000 1.00000000 0.00000000 0.00000000 0.00000000 0.99990001 0.00009999 0.00000000 0.99990001 0.00009999 1.00000000 0.00000000 0.00000000 1.00000000 0.00000000 0.00000000 1.00000000 0.00000000 0.00000000 1.00000000 0.00000000 0.00000000 0.00000000 0.99990001 0.00009999 0.00000000 0.99990001 0.00009999 1.00000000 0.00000000 0.00000000 1.00000000 0.00000000 0.00000000 1.00000000 0.00000000 0.00000000 1.00000000 0.00000000 0.00000000 0.00000000 0.99990001 0.00009999 0.00000000 0.99990001 0.00009999 1.00000000 0.00000000 0.00000000 1.00000000 0.00000000 0.00000000 1.00000000 0.00000000 0.00000000 1.00000000 0.00000000 0.00000000 0.00000000 0.99990001 0.00009999 0.00000000 0.99990001 0.00009999 1.00000000 0.00000000 0.00000000 1.00000000 0.00000000 0.00000000 1.00000000 0.00000000 0.00000000 1.00000000 0.00000000 0.00000000 0.00000000 0.95000000 0.05000000 0.00000000 0.90000000 0.10000000 1.00000000 0.00000000 0.00000000 1.00000000 0.00000000 0.00000000 1.00000000 0.00000000 0.00000000 1.00000000 0.00000000 0.00000000 0.00000000 0.99990001 0.00009999 0.00000000 0.99990001 0.00009999 </TABLE>
</DEFINITION>

<DEFINITION>
	<FOR>F4</FOR>
	<GIVEN>Fault</GIVEN>
	<GIVEN>F97</GIVEN>
	<TABLE>1.00000000 0.00000000 0.00000000 0.00000000 0.01000000 0.99000000 1.00000000 0.00000000 0.00000000 0.00000000 0.99900000 0.00100000 1.00000000 0.00000000 0.00000000 0.00000000 0.99900000 0.00100000 1.00000000 0.00000000 0.00000000 0.00000000 0.90000000 0.10000000 1.00000000 0.00000000 0.00000000 0.00000000 0.99000000 0.01000000 1.00000000 0.00000000 0.00000000 0.00000000 0.95000000 0.05000000 1.00000000 0.00000000 0.00000000 0.00000000 1.00000000 0.00000000 1.00000000 0.00000000 0.00000000 0.00000000 0.80000000 0.20000000 1.00000000 0.00000000 0.00000000 0.00000000 0.99000000 0.01000000 1.00000000 0.00000000 0.00000000 0.00000000 0.99900000 0.00100000 1.00000000 0.00000000 0.00000000 0.00000000 0.90000000 0.10000000 1.00000000 0.00000000 0.00000000 0.00000000 0.99900000 0.00100000 1.00000000 0.00000000 0.00000000 0.00000000 0.99900000 0.00100000 1.00000000 0.00000000 0.00000000 0.00000000 0.98000000 0.02000000 1.00000000 0.00000000 0.00000000 0.00000000 0.90000000 0.10000000 1.00000000 0.00000000 0.00000000 0.00000000 0.90000000 0.10000000 1.00000000 0.00000000 0.00000000 0.00000000 0.80000000 0.20000000 1.00000000 0.00000000 0.00000000 0.00000000 0.99900000 0.00100000 1.00000000 0.00000000 0.00000000 0.00000000 0.99900000 0.00100000 1.00000000 0.00000000 0.00000000 0.00000000 0.99900000 0.00100000 1.00000000 0.00000000 0.00000000 0.00000000 0.99000000 0.01000000 1.00000000 0.00000000 0.00000000 0.00000000 0.99000000 0.01000000 1.00000000 0.00000000 0.00000000 0.00000000 0.99900000 0.00100000 1.00000000 0.00000000 0.00000000 0.00000000 0.90000000 0.10000000 1.00000000 0.00000000 0.00000000 0.00000000 0.99900000 0.00100000 1.00000000 0.00000000 0.00000000 0.00000000 0.99900000 0.00100000 1.00000000 0.00000000 0.00000000 0.00000000 0.99900000 0.00100000 1.00000000 0.00000000 0.00000000 0.00000000 0.99000000 0.01000000 1.00000000 0.00000000 0.00000000 0.00000000 0.99000000 0.01000000 1.00000000 0.00000000 0.00000000 0.00000000 0.99000000 0.01000000 1.00000000 0.00000000 0.00000000 0.00000000 0.99000000 0.01000000 1.00000000 0.00000000 0.00000000 0.00000000 0.99000000 0.01000000 1.00000000 0.00000000 0.00000000 0.00000000 0.99900000 0.00100000 1.00000000 0.00000000 0.00000000 0.00000000 0.99900000 0.00100000 1.00000000 0.00000000 0.00000000 0.00000000 1.00000000 0.00000000 1.00000000 0.00000000 0.00000000 0.00000000 1.00000000 0.00000000 1.00000000 0.00000000 0.00000000 0.00000000 1.00000000 0.00000000 1.00000000 0.00000000 0.00000000 0.00000000 1.00000000 0.00000000 1.00000000 0.00000000 0.00000000 0.00000000 0.99999000 0.00001000 1.00000000 0.00000000 0.00000000 0.00000000 0.99999000 0.00001000 1.00000000 0.00000000 0.00000000 0.00000000 0.90000000 0.10000000 1.00000000 0.00000000 0.00000000 0.00000000 0.99999000 0.00001000 1.00000000 0.00000000 0.00000000 0.00000000 0.99999000 0.00001000 1.00000000 0.00000000 0.00000000 0.00000000 0.99999000 0.00001000 1.00000000 0.00000000 0.00000000 0.00000000 0.99999000 0.00001000 1.00000000 0.00000000 0.00000000 0.00000000 0.99999000 0.00001000 1.00000000 0.00000000 0.00000000 0.00000000 0.99999000 0.00001000 1.00000000 0.00000000 0.00000000 0.00000000 0.99999000 0.00001000 1.00000000 0.00000000 0.00000000 0.00000000 0.99999000 0.00001000 1.00000000 0.00000000 0.00000000 0.00000000 0.99999000 0.00001000 1.00000000 0.00000000 0.00000000 0.00000000 0.99999000 0.00001000 1.00000000 0.00000000 0.00000000 0.00000000 0.99999000 0.00001000 1.00000000 0.00000000 0.00000000 0.00000000 0.99900000 0.00100000 1.00000000 0.00000000 0.00000000 0.00000000 0.99900000 0.00100000 1.00000000 0.00000000 0.00000000 0.00000000 0.99900000 0.00100000 1.00000000 0.00000000 0.00000000 0.00000000 0.99900000 0.00100000 1.00000000 0.00000000 0.00000000 0.00000000 0.99900000 0.00100000 1.00000000 0.00000000 0.00000000 0.00000000 0.99900000 0.00100000 1.00000000 0.00000000 0.00000000 0.00000000 0.99900000 0.00100000 1.00000000 0.00000000 0.00000000 0.00000000 0.80000000 0.20000000 1.00000000 0.00000000 0.00000000 0.00000000 0.99900000 0.00100000 1.00000000 0.00000000 0.00000000 0.00000000 0.90000000 0.10000000 1.00000000 0.00000000 0.00000000 0.00000000 0.99999000 0.00001000 </TABLE>
</DEFINITION>

<DEFINITION>
	<FOR>F5</FOR>
	<GIVEN>Fault</GIVEN>
	<GIVEN>F2</GIVEN>
	<GIVEN>F97</GIVEN>
	<TABLE>1.00000000 0.00000000 0.00000000 0.00000000 1.00000000 0.00000000 0.00000000 0.00000000 1.00000000 0.00000000 0.00000000 0.00000000 0.00000000 0.99890011 0.00099990 0.00009999 1.00000000 0.00000000 0.00000000 0.00000000 0.00000000 0.98901099 0.00999001 0.00099900 1.00000000 0.00000000 0.00000000 0.00000000 1.00000000 0.00000000 0.00000000 0.00000000 1.00000000 0.00000000 0.00000000 0.00000000 0.00000000 0.99890011 0.00099990 0.00009999 1.00000000 0.00000000 0.00000000 0.00000000 0.00000000 0.98901099 0.00999001 0.00099900 1.00000000 0.00000000 0.00000000 0.00000000 1.00000000 0.00000000 0.00000000 0.00000000 1.00000000 0.00000000 0.00000000 0.00000000 0.00000000 0.99890011 0.00099990 0.00009999 1.00000000 0.00000000 0.00000000 0.00000000 0.00000000 0.98901099 0.00999001 0.00099900 1.00000000 0.00000000 0.00000000 0.00000000 1.00000000 0.00000000 0.00000000 0.00000000 1.00000000 0.00000000 0.00000000 0.00000000 0.00000000 0.99890011 0.00099990 0.00009999 1.00000000 0.00000000 0.00000000 0.00000000 0.00000000 0.98901099 0.00999001 0.00099900 1.00000000 0.00000000 0.00000000 0.00000000 1.00000000 0.00000000 0.00000000 0.00000000 1.00000000 0.00000000 0.00000000 0.00000000 0.00000000 0.99890011 0.00099990 0.00009999 1.00000000 0.00000000 0.00000000 0.00000000 0.00000000 0.98901099 0.00999001 0.00099900 1.00000000 0.00000000 0.00000000 0.00000000 1.00000000 0.00000000 0.00000000 0.00000000 1.00000000 0.00000000 0.00000000 0.00000000 0.00000000 0.99890011 0.00099990 0.00009999 1.00000000 0.00000000 0.00000000 0.00000000 0.00000000 0.98901099 0.00999001 0.00099900 1.00000000 0.00000000 0.00000000 0.00000000 1.00000000 0.00000000 0.00000000 0.00000000 1.00000000 0.00000000 0.00000000 0.00000000 0.25000000 0.25000000 0.25000000 0.25000000 1.00000000 0.00000000 0.00000000 0.00000000 0.00000000 0.00099900 0.29970030 0.69930070 1.00000000 0.00000000 0.00000000 0.00000000 1.00000000 0.00000000 0.00000000 0.00000000 1.00000000 0.00000000 0.00000000 0.00000000 0.00000000 0.99890011 0.00099990 0.00009999 1.00000000 0.00000000 0.00000000 0.00000000 0.00000000 0.98901099 0.00999001 0.00099900 1.00000000 0.00000000 0.00000000 0.00000000 1.00000000 0.00000000 0.00000000 0.00000000 1.00000000 0.00000000 0.00000000 0.00000000 0.00000000 0.99890011 0.00099990 0.00009999 1.00000000 0.00000000 0.00000000 0.00000000 0.00000000 0.98901099 0.00999001 0.00099900 1.00000000 0.00000000 0.00000000 0.00000000 1.00000000 0.00000000 0.00000000 0.00000000 1.00000000 0.00000000 0.00000000 0.00000000 0.00000000 0.99890011 0.00099990 0.00009999 1.00000000 0.00000000 0.00000000 0.00000000 0.00000000 0.98901099 0.00999001 0.00099900 1.00000000 0.00000000 0.00000000 0.00000000 1.00000000 0.00000000 0.00000000 0.00000000 1.00000000 0.00000000 0.00000000 0.00000000 0.00000000 0.99890011 0.00099990 0.00009999 1.00000000 0.00000000 0.00000000 0.00000000 0.00000000 0.98901099 0.00999001 0.00099900 1.00000000 0.00000000 0.00000000 0.00000000 1.00000000 0.00000000 0.00000000 0.00000000 1.00000000 0.00000000 0.00000000 0.00000000 0.00000000 0.99890011 0.00099990 0.00009999 1.00000000 0.00000000 0.00000000 0.00000000 0.00000000 0.98901099 0.00999001 0.00099900 1.00000000 0.00000000 0.00000000 0.00000000 1.00000000 0.00000000 0.00000000 0.00000000 1.00000000 0.00000000 0.00000000 0.00000000 0.00000000 0.99890011 0.00099990 0.00009999 1.00000000 0.00000000 0.00000000 0.00000000 0.00000000 0.98901099 0.00999001 0.00099900 1.00000000 0.00000000 0.00000000 0.00000000 1.00000000 0.00000000 0.00000000 0.00000000 1.00000000 0.00000000 0.00000000 0.00000000 0.00000000 0.99403579 0.00497018 0.00099404 1.00000000 0.00000000 0.00000000 0.00000000 0.00000000 0.94000000 0.05000000 0.01000000 1.00000000 0.00000000 0.00000000 0.00000000 1.00000000 0.00000000 0.00000000 0.00000000 1.00000000 0.00000000 0.00000000 0.00000000 0.00000000 0.99890011 0.00099990 0.00009999 1.00000000 0.00000000 0.00000000 0.00000000 0.00000000 0.98901099 0.00999001 0.00099900 1.00000000 0.00000000 0.00000000 0.00000000 1.00000000 0.00000000 0.00000000 0.00000000 1.00000000 0.00000000 0.00000000 0.00000000 0.00000000 0.99890011 0.00099990 0.00009999 1.00000000 0.00000000 0.00000000 0.00000000 0.00000000 0.98901099 0.00999001 0.00099900 1.00000000 0.00000000 0.00000000 0.00000000 1.00000000 0.00000000 0.00000000 0.00000000 1.00000000 0.00000000 0.00000000 0.00000000 0.00000000 0.99890011 0.00099990 0.00009999 1.00000000 0.00000000 0.00000000 0.00000000 0.00000000 0.98901099 0.00999001 0.00099900 1.00000000 0.00000000 0.00000000 0.00000000 1.00000000 0.00000000 0.00000000 0.00000000 1.00000000 0.00000000 0.00000000 0.00000000 0.00000000 0.99890011 0.00099990 0.00009999 1.00000000 0.00000000 0.00000000 0.00000000 0.00000000 0.98901099 0.00999001 0.00099900 1.00000000 0.00000000 0.00000000 0.00000000 1.00000000 0.00000000 0.00000000 0.00000000 1.00000000 0.00000000 0.00000000 0.00000000 0.00000000 0.99890011 0.00099990 0.00009999 1.00000000 0.00000000 0.00000000 0.00000000 0.00000000 0.98901099 0.00999001 0.00099900 1.00000000 0.00000000 0.00000000 0.00000000 1.00000000 0.00000000 0.00000000 0.00000000 1.00000000 0.00000000 0.00000000 0.00000000 0.00000000 0.99890011 0.00099990 0.00009999 1.00000000 0.00000000 0.00000000 0.00000000 0.00000000 0.98901099 0.00999001 0.00099900 1.00000000 0.00000000 0.00000000 0.00000000 1.00000000 0.00000000 0.00000000 0.00000000 1.00000000 0.00000000 0.00000000 0.00000000 0.00000000 0.99890011 0.00099990 0.00009999 1.00000000 0.00000000 0.00000000 0.00000000 0.00000000 0.98901099 0.00999001 0.00099900 1.00000000 0.00000000 0.00000000 0.00000000 1.00000000 0.00000000 0.00000000 0.00000000 1.00000000 0.00000000 0.00000000 0.00000000 0.00000000 0.99890011 0.00099990 0.00009999 1.00000000 0.00000000 0.00000000 0.00000000 0.00000000 0.98901099 0.00999001 0.00099900 1.00000000 0.00000000 0.00000000 0.00000000 1.00000000 0.00000000 0.00000000 0.00000000 1.00000000 0.00000000 0.00000000 0.00000000 0.00000000 0.99890011 0.00099990 0.00009999 1.00000000 0.00000000 0.00000000 0.00000000 0.00000000 0.98901099 0.00999001 0.00099900 1.00000000 0.00000000 0.00000000 0.00000000 1.00000000 0.00000000 0.00000000 0.00000000 1.00000000 0.00000000 0.00000000 0.00000000 0.00000000 0.99890011 0.00099990 0.00009999 1.00000000 0.00000000 0.00000000 0.00000000 0.00000000 0.98901099 0.00999001 0.00099900 1.00000000 0.00000000 0.00000000 0.00000000 1.00000000 0.00000000 0.00000000 0.00000000 1.00000000 0.00000000 0.00000000 0.00000000 0.00000000 0.99890011 0.00099990 0.00009999 1.00000000 0.00000000 0.00000000 0.00000000 0.00000000 0.98901099 0.00999001 0.00099900 1.00000000 0.00000000 0.00000000 0.00000000 1.00000000 0.00000000 0.00000000 0.00000000 1.00000000 0.00000000 0.00000000 0.00000000 0.00000000 0.99890011 0.00099990 0.00009999 1.00000000 0.00000000 0.00000000 0.00000000 0.00000000 0.98901099 0.00999001 0.00099900 1.00000000 0.00000000 0.00000000 0.00000000 1.00000000 0.00000000 0.00000000 0.00000000 1.00000000 0.00000000 0.00000000 0.00000000 0.00000000 0.99890011 0.00099990 0.00009999 1.00000000 0.00000000 0.00000000 0.00000000 0.00000000 0.98901099 0.00999001 0.00099900 1.00000000 0.00000000 0.00000000 0.00000000 1.00000000 0.00000000 0.00000000 0.00000000 1.00000000 0.00000000 0.00000000 0.00000000 0.00000000 0.99890011 0.00099990 0.00009999 1.00000000 0.00000000 0.00000000 0.00000000 0.00000000 0.98901099 0.00999001 0.00099900 1.00000000 0.00000000 0.00000000 0.00000000 1.00000000 0.00000000 0.00000000 0.00000000 1.00000000 0.00000000 0.00000000 0.00000000 0.00000000 0.99890011 0.00099990 0.00009999 1.00000000 0.00000000 0.00000000 0.00000000 0.00000000 0.98901099 0.00999001 0.00099900 1.00000000 0.00000000 0.00000000 0.00000000 1.00000000 0.00000000 0.00000000 0.00000000 1.00000000 0.00000000 0.00000000 0.00000000 0.00000000 0.99890011 0.00099990 0.00009999 1.00000000 0.00000000 0.00000000 0.00000000 0.00000000 0.98901099 0.00999001 0.00099900 1.00000000 0.00000000 0.00000000 0.00000000 1.00000000 0.00000000 0.00000000 0.00000000 1.00000000 0.00000000 0.00000000 0.00000000 0.00000000 0.99890011 0.00099990 0.00009999 1.00000000 0.00000000 0.00000000 0.00000000 0.00000000 0.98901099 0.00999001 0.00099900 1.00000000 0.00000000 0.00000000 0.00000000 1.00000000 0.00000000 0.00000000 0.00000000 1.00000000 0.00000000 0.00000000 0.00000000 0.00000000 0.99890011 0.00099990 0.00009999 1.00000000 0.00000000 0.00000000 0.00000000 0.00000000 0.98901099 0.00999001 0.00099900 1.00000000 0.00000000 0.00000000 0.00000000 1.00000000 0.00000000 0.00000000 0.00000000 1.00000000 0.00000000 0.00000000 0.00000000 0.00000000 0.99890011 0.00099990 0.00009999 1.00000000 0.00000000 0.00000000 0.00000000 0.00000000 0.98901099 0.00999001 0.00099900 1.00000000 0.00000000 0.00000000 0.00000000 1.00000000 0.00000000 0.00000000 0.00000000 1.00000000 0.00000000 0.00000000 0.00000000 0.00000000 0.99890011 0.00099990 0.00009999 1.00000000 0.00000000 0.00000000 0.00000000 0.00000000 0.98901099 0.00999001 0.00099900 1.00000000 0.00000000 0.00000000 0.00000000 1.00000000 0.00000000 0.00000000 0.00000000 1.00000000 0.00000000 0.00000000 0.00000000 0.00000000 0.99990000 0.00010000 0.00000000 1.00000000 0.00000000 0.00000000 0.00000000 0.00000000 0.99900000 0.00100000 0.00000000 1.00000000 0.00000000 0.00000000 0.00000000 1.00000000 0.00000000 0.00000000 0.00000000 1.00000000 0.00000000 0.00000000 0.00000000 0.00000000 0.99990000 0.00010000 0.00000000 1.00000000 0.00000000 0.00000000 0.00000000 0.00000000 0.99900000 0.00100000 0.00000000 1.00000000 0.00000000 0.00000000 0.00000000 1.00000000 0.00000000 0.00000000 0.00000000 1.00000000 0.00000000 0.00000000 0.00000000 0.00000000 0.99990000 0.00010000 0.00000000 1.00000000 0.00000000 0.00000000 0.00000000 0.00000000 0.99900000 0.00100000 0.00000000 1.00000000 0.00000000 0.00000000 0.00000000 1.00000000 0.00000000 0.00000000 0.00000000 1.00000000 0.00000000 0.00000000 0.00000000 0.00000000 0.99990000 0.00010000 0.00000000 1.00000000 0.00000000 0.00000000 0.00000000 0.00000000 0.99900000 0.00100000 0.00000000 1.00000000 0.00000000 0.00000000 0.00000000 1.00000000 0.00000000 0.00000000 0.00000000 1.00000000 0.00000000 0.00000000 0.00000000 0.00000000 0.99890011 0.00099990 0.00009999 1.00000000 0.00000000 0.00000000 0.00000000 0.00000000 0.98901099 0.00999001 0.00099900 1.00000000 0.00000000 0.00000000 0.00000000 1.00000000 0.00000000 0.00000000 0.00000000 1.00000000 0.00000000 0.00000000 0.00000000 0.00000000 0.99890011 0.00099990 0.00009999 1.00000000 0.00000000 0.00000000 0.00000000 0.00000000 0.98901099 0.00999001 0.00099900 1.00000000 0.00000000 0.00000000 0.00000000 1.00000000 0.00000000 0.00000000 0.00000000 1.00000000 0.00000000 0.00000000 0.00000000 0.00000000 0.99890011 0.00099990 0.00009999 1.00000000 0.00000000 0.00000000 0.00000000 0.00000000 0.98901099 0.00999001 0.00099900 1.00000000 0.00000000 0.00000000 0.00000000 1.00000000 0.00000000 0.00000000 0.00000000 1.00000000 0.00000000 0.00000000 0.00000000 0.00000000 0.99890011 0.00099990 0.00009999 1.00000000 0.00000000 0.00000000 0.00000000 0.00000000 0.98901099 0.00999001 0.00099900 1.00000000 0.00000000 0.00000000 0.00000000 1.00000000 0.00000000 0.00000000 0.00000000 1.00000000 0.00000000 0.00000000 0.00000000 0.00000000 0.99890011 0.00099990 0.00009999 1.00000000 0.00000000 0.00000000 0.00000000 0.00000000 0.98901099 0.00999001 0.00099900 1.00000000 0.00000000 0.00000000 0.00000000 1.00000000 0.00000000 0.00000000 0.00000000 1.00000000 0.00000000 0.00000000 0.00000000 0.00000000 0.99890011 0.00099990 0.00009999 1.00000000 0.00000000 0.00000000 0.00000000 0.00000000 0.98901099 0.00999001 0.00099900 1.00000000 0.00000000 0.00000000 0.00000000 1.00000000 0.00000000 0.00000000 0.00000000 1.00000000 0.00000000 0.00000000 0.00000000 0.00000000 0.99890011 0.00099990 0.00009999 1.00000000 0.00000000 0.00000000 0.00000000 0.00000000 0.98901099 0.00999001 0.00099900 1.00000000 0.00000000 0.00000000 0.00000000 1.00000000 0.00000000 0.00000000 0.00000000 1.00000000 0.00000000 0.00000000 0.00000000 0.00000000 0.99890011 0.00099990 0.00009999 1.00000000 0.00000000 0.00000000 0.00000000 0.00000000 0.98901099 0.00999001 0.00099900 1.00000000 0.00000000 0.00000000 0.00000000 1.00000000 0.00000000 0.00000000 0.00000000 1.00000000 0.00000000 0.00000000 0.00000000 0.00000000 0.99890011 0.00099990 0.00009999 1.00000000 0.00000000 0.00000000 0.00000000 0.00000000 0.98901099 0.00999001 0.00099900 1.00000000 0.00000000 0.00000000 0.00000000 1.00000000 0.00000000 0.00000000 0.00000000 1.00000000 0.00000000 0.00000000 0.00000000 0.00000000 0.99890011 0.00099990 0.00009999 1.00000000 0.00000000 0.00000000 0.00000000 0.00000000 0.98901099 0.00999001 0.00099900 1.00000000 0.00000000 0.00000000 0.00000000 1.00000000 0.00000000 0.00000000 0.00000000 1.00000000 0.00000000 0.00000000 0.00000000 0.00000000 0.99890011 0.00099990 0.00009999 1.00000000 0.00000000 0.00000000 0.00000000 0.00000000 0.98901099 0.00999001 0.00099900 1.00000000 0.00000000 0.00000000 0.00000000 1.00000000 0.00000000 0.00000000 0.00000000 1.00000000 0.00000000 0.00000000 0.00000000 0.00000000 0.99890011 0.00099990 0.00009999 1.00000000 0.00000000 0.00000000 0.00000000 0.00000000 0.98901099 0.00999001 0.00099900 1.00000000 0.00000000 0.00000000 0.00000000 1.00000000 0.00000000 0.00000000 0.00000000 1.00000000 0.00000000 0.00000000 0.00000000 0.00000000 0.99890011 0.00099990 0.00009999 1.00000000 0.00000000 0.00000000 0.00000000 0.00000000 0.98901099 0.00999001 0.00099900 1.00000000 0.00000000 0.00000000 0.00000000 1.00000000 0.00000000 0.00000000 0.00000000 1.00000000 0.00000000 0.00000000 0.00000000 0.00000000 0.99890011 0.00099990 0.00009999 1.00000000 0.00000000 0.00000000 0.00000000 0.00000000 0.98901099 0.00999001 0.00099900 1.00000000 0.00000000 0.00000000 0.00000000 1.00000000 0.00000000 0.00000000 0.00000000 1.00000000 0.00000000 0.00000000 0.00000000 0.00000000 0.99890011 0.00099990 0.00009999 1.00000000 0.00000000 0.00000000 0.00000000 0.00000000 0.98901099 0.00999001 0.00099900 1.00000000 0.00000000 0.00000000 0.00000000 1.00000000 0.00000000 0.00000000 0.00000000 1.00000000 0.00000000 0.00000000 0.00000000 0.00000000 0.99890011 0.00099990 0.00009999 1.00000000 0.00000000 0.00000000 0.00000000 0.00000000 0.98901099 0.00999001 0.00099900 1.00000000 0.00000000 0.00000000 0.00000000 1.00000000 0.00000000 0.00000000 0.00000000 1.00000000 0.00000000 0.00000000 0.00000000 0.00000000 0.99890011 0.00099990 0.00009999 1.00000000 0.00000000 0.00000000 0.00000000 0.00000000 0.98901099 0.00999001 0.00099900 1.00000000 0.00000000 0.00000000 0.00000000 1.00000000 0.00000000 0.00000000 0.00000000 1.00000000 0.00000000 0.00000000 0.00000000 0.00000000 0.99890011 0.00099990 0.00009999 1.00000000 0.00000000 0.00000000 0.00000000 0.00000000 0.98901099 0.00999001 0.00099900 1.00000000 0.00000000 0.00000000 0.00000000 1.00000000 0.00000000 0.00000000 0.00000000 1.00000000 0.00000000 0.00000000 0.00000000 0.00000000 0.99890011 0.00099990 0.00009999 1.00000000 0.00000000 0.00000000 0.00000000 0.00000000 0.98901099 0.00999001 0.00099900 1.00000000 0.00000000 0.00000000 0.00000000 1.00000000 0.00000000 0.00000000 0.00000000 1.00000000 0.00000000 0.00000000 0.00000000 0.00000000 0.99890011 0.00099990 0.00009999 1.00000000 0.00000000 0.00000000 0.00000000 0.00000000 0.98901099 0.00999001 0.00099900 1.00000000 0.00000000 0.00000000 0.00000000 1.00000000 0.00000000 0.00000000 0.00000000 1.00000000 0.00000000 0.00000000 0.00000000 0.00000000 0.99890011 0.00099990 0.00009999 1.00000000 0.00000000 0.00000000 0.00000000 0.00000000 0.98901099 0.00999001 0.00099900 1.00000000 0.00000000 0.00000000 0.00000000 1.00000000 0.00000000 0.00000000 0.00000000 1.00000000 0.00000000 0.00000000 0.00000000 0.00000000 0.99304866 0.00496524 0.00198610 1.00000000 0.00000000 0.00000000 0.00000000 0.00000000 0.93000000 0.05000000 0.02000000 1.00000000 0.00000000 0.00000000 0.00000000 1.00000000 0.00000000 0.00000000 0.00000000 1.00000000 0.00000000 0.00000000 0.00000000 0.00000000 0.99890011 0.00099990 0.00009999 1.00000000 0.00000000 0.00000000 0.00000000 0.00000000 0.98901099 0.00999001 0.00099900 1.00000000 0.00000000 0.00000000 0.00000000 1.00000000 0.00000000 0.00000000 0.00000000 1.00000000 0.00000000 0.00000000 0.00000000 0.00000000 0.99304866 0.00496524 0.00198610 1.00000000 0.00000000 0.00000000 0.00000000 0.00000000 0.93000000 0.05000000 0.02000000 1.00000000 0.00000000 0.00000000 0.00000000 1.00000000 0.00000000 0.00000000 0.00000000 1.00000000 0.00000000 0.00000000 0.00000000 0.00000000 0.99890011 0.00099990 0.00009999 1.00000000 0.00000000 0.00000000 0.00000000 0.00000000 0.98901099 0.00999001 0.00099900 </TABLE>
</DEFINITION>

<DEFINITION>
	<FOR>F53</FOR>
	<GIVEN>Fault</GIVEN>
	<TABLE>0.30000000 0.40000000 0.29000000 0.01000000 0.69993001 0.28997100 0.00999900 0.00009999 0.69993001 0.28997100 0.00999900 0.00009999 0.30000000 0.40000000 0.29000000 0.01000000 0.05000000 0.30000000 0.55000000 0.10000000 0.69993001 0.28997100 0.00999900 0.00009999 0.94108421 0.04901480 0.00980296 0.00009803 0.94108421 0.04901480 0.00980296 0.00009803 0.50000000 0.45000000 0.04000000 0.01000000 0.94108421 0.04901480 0.00980296 0.00009803 0.30000000 0.40000000 0.29000000 0.01000000 0.30000000 0.40000000 0.29000000 0.01000000 0.94108421 0.04901480 0.00980296 0.00009803 0.94108421 0.04901480 0.00980296 0.00009803 0.50000000 0.45000000 0.04000000 0.01000000 0.50000000 0.45000000 0.04000000 0.01000000 0.94108421 0.04901480 0.00980296 0.00009803 0.94108421 0.04901480 0.00980296 0.00009803 0.94108421 0.04901480 0.00980296 0.00009803 0.94108421 0.04901480 0.00980296 0.00009803 0.69993001 0.28997100 0.00999900 0.00009999 0.94108421 0.04901480 0.00980296 0.00009803 0.94108421 0.04901480 0.00980296 0.00009803 0.30000000 0.40000000 0.29000000 0.01000000 0.94108421 0.04901480 0.00980296 0.00009803 0.94108421 0.04901480 0.00980296 0.00009803 0.94108421 0.04901480 0.00980296 0.00009803 0.94108421 0.04901480 0.00980296 0.00009803 0.94108421 0.04901480 0.00980296 0.00009803 0.94108421 0.04901480 0.00980296 0.00009803 0.94108421 0.04901480 0.00980296 0.00009803 0.94108421 0.04901480 0.00980296 0.00009803 0.94108421 0.04901480 0.00980296 0.00009803 0.94108421 0.04901480 0.00980296 0.00009803 0.94108421 0.04901480 0.00980296 0.00009803 0.94108421 0.04901480 0.00980296 0.00009803 0.94108421 0.04901480 0.00980296 0.00009803 0.94108421 0.04901480 0.00980296 0.00009803 0.94108421 0.04901480 0.00980296 0.00009803 0.94108421 0.04901480 0.00980296 0.00009803 0.94108421 0.04901480 0.00980296 0.00009803 0.94108421 0.04901480 0.00980296 0.00009803 0.94108421 0.04901480 0.00980296 0.00009803 0.94108421 0.04901480 0.00980296 0.00009803 0.94108421 0.04901480 0.00980296 0.00009803 0.94108421 0.04901480 0.00980296 0.00009803 0.50000000 0.45000000 0.04000000 0.01000000 0.50000000 0.45000000 0.04000000 0.01000000 0.94108421 0.04901480 0.00980296 0.00009803 0.94108421 0.04901480 0.00980296 0.00009803 0.94108421 0.04901480 0.00980296 0.00009803 0.94108421 0.04901480 0.00980296 0.00009803 0.94108421 0.04901480 0.00980296 0.00009803 0.01000000 0.05000000 0.69000000 0.25000000 0.94108421 0.04901480 0.00980296 0.00009803 0.94108421 0.04901480 0.00980296 0.00009803 0.94108421 0.04901480 0.00980296 0.00009803 0.30000000 0.40000000 0.29000000 0.01000000 0.94108421 0.04901480 0.00980296 0.00009803 0.30000000 0.40000000 0.29000000 0.01000000 0.94108421 0.04901480 0.00980296 0.00009803 0.30000000 0.40000000 0.29000000 0.01000000 0.94108421 0.04901480 0.00980296 0.00009803 </TABLE>
</DEFINITION>

<DEFINITION>
	<FOR>F6</FOR>
	<GIVEN>Fault</GIVEN>
	<GIVEN>F53</GIVEN>
	<TABLE>0.95000000 0.05000000 0.00000000 0.00000000 0.75000000 0.25000000 0.00000000 0.00000000 0.49950050 0.44955045 0.04995005 0.00099900 0.00000000 0.05000000 0.40000000 0.55000000 0.95000000 0.05000000 0.00000000 0.00000000 0.75000000 0.25000000 0.00000000 0.00000000 0.49950050 0.44955045 0.04995005 0.00099900 0.00000000 0.05000000 0.40000000 0.55000000 0.95000000 0.05000000 0.00000000 0.00000000 0.75000000 0.25000000 0.00000000 0.00000000 0.49950050 0.44955045 0.04995005 0.00099900 0.00000000 0.05000000 0.40000000 0.55000000 0.95000000 0.05000000 0.00000000 0.00000000 0.75000000 0.25000000 0.00000000 0.00000000 0.49950050 0.44955045 0.04995005 0.00099900 0.00000000 0.05000000 0.40000000 0.55000000 0.00000000 0.00099900 0.24975025 0.74925075 0.25000000 0.75000000 0.00000000 0.00000000 0.00000000 0.39960040 0.59940060 0.00099900 0.00000000 0.01000000 0.40000000 0.59000000 0.95000000 0.05000000 0.00000000 0.00000000 0.75000000 0.25000000 0.00000000 0.00000000 0.49950050 0.44955045 0.04995005 0.00099900 0.00000000 0.05000000 0.40000000 0.55000000 0.95000000 0.05000000 0.00000000 0.00000000 0.75000000 0.25000000 0.00000000 0.00000000 0.49950050 0.44955045 0.04995005 0.00099900 0.00000000 0.05000000 0.40000000 0.55000000 0.95000000 0.05000000 0.00000000 0.00000000 0.75000000 0.25000000 0.00000000 0.00000000 0.49950050 0.44955045 0.04995005 0.00099900 0.00000000 0.05000000 0.40000000 0.55000000 0.95000000 0.05000000 0.00000000 0.00000000 0.75000000 0.25000000 0.00000000 0.00000000 0.49950050 0.44955045 0.04995005 0.00099900 0.00000000 0.05000000 0.40000000 0.55000000 0.00000000 0.05000000 0.35000000 0.60000000 0.00000000 0.04000000 0.36000000 0.60000000 0.00000000 0.01000000 0.40000000 0.59000000 0.00000000 0.00537634 0.13440860 0.86021505 0.95000000 0.05000000 0.00000000 0.00000000 0.75000000 0.25000000 0.00000000 0.00000000 0.49950050 0.44955045 0.04995005 0.00099900 0.00000000 0.05000000 0.40000000 0.55000000 0.95000000 0.05000000 0.00000000 0.00000000 0.75000000 0.25000000 0.00000000 0.00000000 0.49950050 0.44955045 0.04995005 0.00099900 0.00000000 0.05000000 0.40000000 0.55000000 0.95000000 0.05000000 0.00000000 0.00000000 0.75000000 0.25000000 0.00000000 0.00000000 0.49950050 0.44955045 0.04995005 0.00099900 0.00000000 0.05000000 0.40000000 0.55000000 0.95000000 0.05000000 0.00000000 0.00000000 0.75000000 0.25000000 0.00000000 0.00000000 0.49950050 0.44955045 0.04995005 0.00099900 0.00000000 0.05000000 0.40000000 0.55000000 0.95000000 0.05000000 0.00000000 0.00000000 0.75000000 0.25000000 0.00000000 0.00000000 0.49950050 0.44955045 0.04995005 0.00099900 0.00000000 0.05000000 0.40000000 0.55000000 0.95000000 0.05000000 0.00000000 0.00000000 0.75000000 0.25000000 0.00000000 0.00000000 0.49950050 0.44955045 0.04995005 0.00099900 0.00000000 0.05000000 0.40000000 0.55000000 0.95000000 0.05000000 0.00000000 0.00000000 0.75000000 0.25000000 0.00000000 0.00000000 0.49950050 0.44955045 0.04995005 0.00099900 0.00000000 0.05000000 0.40000000 0.55000000 0.95000000 0.05000000 0.00000000 0.00000000 0.75000000 0.25000000 0.00000000 0.00000000 0.49950050 0.44955045 0.04995005 0.00099900 0.00000000 0.05000000 0.40000000 0.55000000 0.95000000 0.05000000 0.00000000 0.00000000 0.75000000 0.25000000 0.00000000 0.00000000 0.49950050 0.44955045 0.04995005 0.00099900 0.00000000 0.05000000 0.40000000 0.55000000 0.95000000 0.05000000 0.00000000 0.00000000 0.75000000 0.25000000 0.00000000 0.00000000 0.49950050 0.44955045 0.04995005 0.00099900 0.00000000 0.05000000 0.40000000 0.55000000 0.95000000 0.05000000 0.00000000 0.00000000 0.75000000 0.25000000 0.00000000 0.00000000 0.49950050 0.44955045 0.04995005 0.00099900 0.00000000 0.05000000 0.40000000 0.55000000 0.95000000 0.05000000 0.00000000 0.00000000 0.75000000 0.25000000 0.00000000 0.00000000 0.49950050 0.44955045 0.04995005 0.00099900 0.00000000 0.05000000 0.40000000 0.55000000 0.95000000 0.05000000 0.00000000 0.00000000 0.75000000 0.25000000 0.00000000 0.00000000 0.49950050 0.44955045 0.04995005 0.00099900 0.00000000 0.05000000 0.40000000 0.55000000 0.95000000 0.05000000 0.00000000 0.00000000 0.75000000 0.25000000 0.00000000 0.00000000 0.49950050 0.44955045 0.04995005 0.00099900 0.00000000 0.05000000 0.40000000 0.55000000 0.95000000 0.05000000 0.00000000 0.00000000 0.75000000 0.25000000 0.00000000 0.00000000 0.49950050 0.44955045 0.04995005 0.00099900 0.00000000 0.05000000 0.40000000 0.55000000 0.95000000 0.05000000 0.00000000 0.00000000 0.75000000 0.25000000 0.00000000 0.00000000 0.49950050 0.44955045 0.04995005 0.00099900 0.00000000 0.05000000 0.40000000 0.55000000 0.95000000 0.05000000 0.00000000 0.00000000 0.75000000 0.25000000 0.00000000 0.00000000 0.49950050 0.44955045 0.04995005 0.00099900 0.00000000 0.05000000 0.40000000 0.55000000 0.95000000 0.05000000 0.00000000 0.00000000 0.75000000 0.25000000 0.00000000 0.00000000 0.49950050 0.44955045 0.04995005 0.00099900 0.00000000 0.05000000 0.40000000 0.55000000 0.95000000 0.05000000 0.00000000 0.00000000 0.75000000 0.25000000 0.00000000 0.00000000 0.49950050 0.44955045 0.04995005 0.00099900 0.00000000 0.05000000 0.40000000 0.55000000 0.95000000 0.05000000 0.00000000 0.00000000 0.75000000 0.25000000 0.00000000 0.00000000 0.49950050 0.44955045 0.04995005 0.00099900 0.00000000 0.05000000 0.40000000 0.55000000 0.95000000 0.05000000 0.00000000 0.00000000 0.75000000 0.25000000 0.00000000 0.00000000 0.49950050 0.44955045 0.04995005 0.00099900 0.00000000 0.05000000 0.40000000 0.55000000 0.95000000 0.05000000 0.00000000 0.00000000 0.75000000 0.25000000 0.00000000 0.00000000 0.49950050 0.44955045 0.04995005 0.00099900 0.00000000 0.05000000 0.40000000 0.55000000 0.95000000 0.05000000 0.00000000 0.00000000 0.75000000 0.25000000 0.00000000 0.00000000 0.49950050 0.44955045 0.04995005 0.00099900 0.00000000 0.05000000 0.40000000 0.55000000 0.95000000 0.05000000 0.00000000 0.00000000 0.75000000 0.25000000 0.00000000 0.00000000 0.49950050 0.44955045 0.04995005 0.00099900 0.00000000 0.05000000 0.40000000 0.55000000 0.95000000 0.05000000 0.00000000 0.00000000 0.75000000 0.25000000 0.00000000 0.00000000 0.49950050 0.44955045 0.04995005 0.00099900 0.00000000 0.05000000 0.40000000 0.55000000 0.95000000 0.05000000 0.00000000 0.00000000 0.75000000 0.25000000 0.00000000 0.00000000 0.49950050 0.44955045 0.04995005 0.00099900 0.00000000 0.05000000 0.40000000 0.55000000 0.95000000 0.05000000 0.00000000 0.00000000 0.75000000 0.25000000 0.00000000 0.00000000 0.49950050 0.44955045 0.04995005 0.00099900 0.00000000 0.05000000 0.40000000 0.55000000 0.95000000 0.05000000 0.00000000 0.00000000 0.75000000 0.25000000 0.00000000 0.00000000 0.49950050 0.44955045 0.04995005 0.00099900 0.00000000 0.05000000 0.40000000 0.55000000 0.95000000 0.05000000 0.00000000 0.00000000 0.75000000 0.25000000 0.00000000 0.00000000 0.49950050 0.44955045 0.04995005 0.00099900 0.00000000 0.05000000 0.40000000 0.55000000 0.95000000 0.05000000 0.00000000 0.00000000 0.75000000 0.25000000 0.00000000 0.00000000 0.49950050 0.44955045 0.04995005 0.00099900 0.00000000 0.05000000 0.40000000 0.55000000 0.95000000 0.05000000 0.00000000 0.00000000 0.75000000 0.25000000 0.00000000 0.00000000 0.49950050 0.44955045 0.04995005 0.00099900 0.00000000 0.05000000 0.40000000 0.55000000 0.95000000 0.05000000 0.00000000 0.00000000 0.75000000 0.25000000 0.00000000 0.00000000 0.49950050 0.44955045 0.04995005 0.00099900 0.00000000 0.05000000 0.40000000 0.55000000 0.95000000 0.05000000 0.00000000 0.00000000 0.75000000 0.25000000 0.00000000 0.00000000 0.49950050 0.44955045 0.04995005 0.00099900 0.00000000 0.05000000 0.40000000 0.55000000 0.95000000 0.05000000 0.00000000 0.00000000 0.75000000 0.25000000 0.00000000 0.00000000 0.49950050 0.44955045 0.04995005 0.00099900 0.00000000 0.05000000 0.40000000 0.55000000 0.95000000 0.05000000 0.00000000 0.00000000 0.75000000 0.25000000 0.00000000 0.00000000 0.49950050 0.44955045 0.04995005 0.00099900 0.00000000 0.05000000 0.40000000 0.55000000 0.95000000 0.05000000 0.00000000 0.00000000 0.75000000 0.25000000 0.00000000 0.00000000 0.49950050 0.44955045 0.04995005 0.00099900 0.00000000 0.05000000 0.40000000 0.55000000 0.95000000 0.05000000 0.00000000 0.00000000 0.75000000 0.25000000 0.00000000 0.00000000 0.49950050 0.44955045 0.04995005 0.00099900 0.00000000 0.05000000 0.40000000 0.55000000 0.95000000 0.05000000 0.00000000 0.00000000 0.75000000 0.25000000 0.00000000 0.00000000 0.49950050 0.44955045 0.04995005 0.00099900 0.00000000 0.05000000 0.40000000 0.55000000 0.95000000 0.05000000 0.00000000 0.00000000 0.75000000 0.25000000 0.00000000 0.00000000 0.49950050 0.44955045 0.04995005 0.00099900 0.00000000 0.05000000 0.40000000 0.55000000 0.95000000 0.05000000 0.00000000 0.00000000 0.75000000 0.25000000 0.00000000 0.00000000 0.49950050 0.44955045 0.04995005 0.00099900 0.00000000 0.05000000 0.40000000 0.55000000 0.95000000 0.05000000 0.00000000 0.00000000 0.75000000 0.25000000 0.00000000 0.00000000 0.49950050 0.44955045 0.04995005 0.00099900 0.00000000 0.05000000 0.40000000 0.55000000 0.95000000 0.05000000 0.00000000 0.00000000 0.75000000 0.25000000 0.00000000 0.00000000 0.49950050 0.44955045 0.04995005 0.00099900 0.00000000 0.05000000 0.40000000 0.55000000 0.95000000 0.05000000 0.00000000 0.00000000 0.75000000 0.25000000 0.00000000 0.00000000 0.49950050 0.44955045 0.04995005 0.00099900 0.00000000 0.05000000 0.40000000 0.55000000 0.95000000 0.05000000 0.00000000 0.00000000 0.75000000 0.25000000 0.00000000 0.00000000 0.49950050 0.44955045 0.04995005 0.00099900 0.00000000 0.05000000 0.40000000 0.55000000 0.95000000 0.05000000 0.00000000 0.00000000 0.75000000 0.25000000 0.00000000 0.00000000 0.49950050 0.44955045 0.04995005 0.00099900 0.00000000 0.05000000 0.40000000 0.55000000 0.95000000 0.05000000 0.00000000 0.00000000 0.75000000 0.25000000 0.00000000 0.00000000 0.49950050 0.44955045 0.04995005 0.00099900 0.00000000 0.05000000 0.40000000 0.55000000 0.95000000 0.05000000 0.00000000 0.00000000 0.75000000 0.25000000 0.00000000 0.00000000 0.49950050 0.44955045 0.04995005 0.00099900 0.00000000 0.05000000 0.40000000 0.55000000 0.95000000 0.05000000 0.00000000 0.00000000 0.75000000 0.25000000 0.00000000 0.00000000 0.49950050 0.44955045 0.04995005 0.00099900 0.00000000 0.05000000 0.40000000 0.55000000 0.95000000 0.05000000 0.00000000 0.00000000 0.75000000 0.25000000 0.00000000 0.00000000 0.49950050 0.44955045 0.04995005 0.00099900 0.00000000 0.05000000 0.40000000 0.55000000 0.95000000 0.05000000 0.00000000 0.00000000 0.75000000 0.25000000 0.00000000 0.00000000 0.49950050 0.44955045 0.04995005 0.00099900 0.00000000 0.05000000 0.40000000 0.55000000 0.95000000 0.05000000 0.00000000 0.00000000 0.75000000 0.25000000 0.00000000 0.00000000 0.49950050 0.44955045 0.04995005 0.00099900 0.00000000 0.05000000 0.40000000 0.55000000 0.95000000 0.05000000 0.00000000 0.00000000 0.75000000 0.25000000 0.00000000 0.00000000 0.49950050 0.44955045 0.04995005 0.00099900 0.00000000 0.05000000 0.40000000 0.55000000 0.95000000 0.05000000 0.00000000 0.00000000 0.75000000 0.25000000 0.00000000 0.00000000 0.49950050 0.44955045 0.04995005 0.00099900 0.00000000 0.05000000 0.40000000 0.55000000 </TABLE>
</DEFINITION>

<DEFINITION>
	<FOR>F7</FOR>
	<GIVEN>Fault</GIVEN>
	<TABLE>0.97902098 0.01998002 0.00099900 0.00000000 0.00000000 0.97902098 0.01998002 0.00099900 0.00000000 0.00000000 0.97902098 0.01998002 0.00099900 0.00000000 0.00000000 0.97902098 0.01998002 0.00099900 0.00000000 0.00000000 0.49950050 0.39960040 0.09990010 0.00099900 0.00000000 0.97902098 0.01998002 0.00099900 0.00000000 0.00000000 0.97902098 0.01998002 0.00099900 0.00000000 0.00000000 0.97902098 0.01998002 0.00099900 0.00000000 0.00000000 0.69930070 0.19980020 0.09990010 0.00099900 0.00000000 0.97902098 0.01998002 0.00099900 0.00000000 0.00000000 0.97902098 0.01998002 0.00099900 0.00000000 0.00000000 0.01000000 0.54000000 0.25000000 0.15000000 0.05000000 0.00000000 0.01000000 0.09000000 0.60000000 0.30000000 0.97902098 0.01998002 0.00099900 0.00000000 0.00000000 0.97902098 0.01998002 0.00099900 0.00000000 0.00000000 0.97902098 0.01998002 0.00099900 0.00000000 0.00000000 0.97902098 0.01998002 0.00099900 0.00000000 0.00000000 0.97902098 0.01998002 0.00099900 0.00000000 0.00000000 0.97902098 0.01998002 0.00099900 0.00000000 0.00000000 0.97902098 0.01998002 0.00099900 0.00000000 0.00000000 0.97902098 0.01998002 0.00099900 0.00000000 0.00000000 0.97902098 0.01998002 0.00099900 0.00000000 0.00000000 0.89910090 0.08991009 0.00999001 0.00099900 0.00000000 0.97902098 0.01998002 0.00099900 0.00000000 0.00000000 0.00000000 0.01000000 0.09000000 0.60000000 0.30000000 0.97902098 0.01998002 0.00099900 0.00000000 0.00000000 0.97902098 0.01998002 0.00099900 0.00000000 0.00000000 0.94000000 0.03000000 0.02000000 0.01000000 0.00000000 0.94000000 0.03000000 0.02000000 0.01000000 0.00000000 0.97902098 0.01998002 0.00099900 0.00000000 0.00000000 0.97902098 0.01998002 0.00099900 0.00000000 0.00000000 0.97902098 0.01998002 0.00099900 0.00000000 0.00000000 0.97902098 0.01998002 0.00099900 0.00000000 0.00000000 0.97902098 0.01998002 0.00099900 0.00000000 0.00000000 0.97902098 0.01998002 0.00099900 0.00000000 0.00000000 0.97902098 0.01998002 0.00099900 0.00000000 0.00000000 0.97902098 0.01998002 0.00099900 0.00000000 0.00000000 0.97902098 0.01998002 0.00099900 0.00000000 0.00000000 0.97902098 0.01998002 0.00099900 0.00000000 0.00000000 0.97902098 0.01998002 0.00099900 0.00000000 0.00000000 0.97902098 0.01998002 0.00099900 0.00000000 0.00000000 0.97902098 0.01998002 0.00099900 0.00000000 0.00000000 0.97902098 0.01998002 0.00099900 0.00000000 0.00000000 0.97902098 0.01998002 0.00099900 0.00000000 0.00000000 0.97902098 0.01998002 0.00099900 0.00000000 0.00000000 0.97902098 0.01998002 0.00099900 0.00000000 0.00000000 0.97902098 0.01998002 0.00099900 0.00000000 0.00000000 0.97902098 0.01998002 0.00099900 0.00000000 0.00000000 0.97902098 0.01998002 0.00099900 0.00000000 0.00000000 0.97902098 0.01998002 0.00099900 0.00000000 0.00000000 0.97902098 0.01998002 0.00099900 0.00000000 0.00000000 0.97902098 0.01998002 0.00099900 0.00000000 0.00000000 0.97902098 0.01998002 0.00099900 0.00000000 0.00000000 0.97902098 0.01998002 0.00099900 0.00000000 0.00000000 0.97902098 0.01998002 0.00099900 0.00000000 0.00000000 0.97902098 0.01998002 0.00099900 0.00000000 0.00000000 0.97902098 0.01998002 0.00099900 0.00000000 0.00000000 0.97902098 0.01998002 0.00099900 0.00000000 0.00000000 0.97902098 0.01998002 0.00099900 0.00000000 0.00000000 0.97902098 0.01998002 0.00099900 0.00000000 0.00000000 0.97902098 0.01998002 0.00099900 0.00000000 0.00000000 0.97902098 0.01998002 0.00099900 0.00000000 0.00000000 0.97902098 0.01998002 0.00099900 0.00000000 0.00000000 </TABLE>
</DEFINITION>

<DEFINITION>
	<FOR>F56</FOR>
	<GIVEN>Fault</GIVEN>
	<TABLE>0.98901099 0.00999001 0.00099900 0.00000000 0.98901099 0.00999001 0.00099900 0.00000000 0.98901099 0.00999001 0.00099900 0.00000000 0.00000000 0.40000000 0.59000000 0.01000000 0.98901099 0.00999001 0.00099900 0.00000000 0.98901099 0.00999001 0.00099900 0.00000000 0.98901099 0.00999001 0.00099900 0.00000000 0.98901099 0.00999001 0.00099900 0.00000000 0.70000000 0.25000000 0.04000000 0.01000000 0.05000000 0.75000000 0.19000000 0.01000000 0.89910090 0.08991009 0.00999001 0.00099900 0.65555556 0.27777778 0.05555556 0.01111111 0.98901099 0.00999001 0.00099900 0.00000000 0.98901099 0.00999001 0.00099900 0.00000000 0.00000000 0.20000000 0.75000000 0.05000000 0.00000000 0.20000000 0.75000000 0.05000000 0.98901099 0.00999001 0.00099900 0.00000000 0.98901099 0.00999001 0.00099900 0.00000000 0.98901099 0.00999001 0.00099900 0.00000000 0.98901099 0.00999001 0.00099900 0.00000000 0.98901099 0.00999001 0.00099900 0.00000000 0.98901099 0.00999001 0.00099900 0.00000000 0.01000000 0.10000000 0.30000000 0.59000000 0.89910090 0.08991009 0.00999001 0.00099900 0.98901099 0.00999001 0.00099900 0.00000000 0.98900111 0.00998991 0.00099899 0.00000999 0.98900111 0.00998991 0.00099899 0.00000999 0.49000000 0.20000000 0.30000000 0.01000000 0.49000000 0.20000000 0.30000000 0.01000000 0.49000000 0.20000000 0.30000000 0.01000000 0.84158416 0.12871287 0.01980198 0.00990099 0.84158416 0.12871287 0.01980198 0.00990099 0.92000000 0.05000000 0.02000000 0.01000000 0.92000000 0.05000000 0.02000000 0.01000000 0.99300000 0.00100000 0.00100000 0.00500000 0.99300000 0.00100000 0.00100000 0.00500000 0.99300000 0.00100000 0.00100000 0.00500000 0.99300000 0.00100000 0.00100000 0.00500000 0.94400000 0.05000000 0.00500000 0.00100000 0.94400000 0.05000000 0.00500000 0.00100000 0.98900111 0.00998991 0.00099899 0.00000999 0.94400000 0.05000000 0.00500000 0.00100000 0.94400000 0.05000000 0.00500000 0.00100000 0.83000000 0.10000000 0.05000000 0.02000000 0.83000000 0.10000000 0.05000000 0.02000000 0.83000000 0.10000000 0.05000000 0.02000000 0.94400000 0.05000000 0.00500000 0.00100000 0.83000000 0.10000000 0.05000000 0.02000000 0.83000000 0.10000000 0.05000000 0.02000000 0.83000000 0.10000000 0.05000000 0.02000000 0.83000000 0.10000000 0.05000000 0.02000000 0.94400000 0.05000000 0.00500000 0.00100000 0.98901099 0.00999001 0.00099900 0.00000000 0.98901099 0.00999001 0.00099900 0.00000000 0.98901099 0.00999001 0.00099900 0.00000000 0.98901099 0.00999001 0.00099900 0.00000000 0.84000000 0.10000000 0.05000000 0.01000000 0.98901099 0.00999001 0.00099900 0.00000000 0.98901099 0.00999001 0.00099900 0.00000000 0.98901099 0.00999001 0.00099900 0.00000000 0.79920080 0.14985015 0.04995005 0.00099900 0.98901099 0.00999001 0.00099900 0.00000000 0.83000000 0.10000000 0.05000000 0.02000000 </TABLE>
</DEFINITION>

<DEFINITION>
	<FOR>F8</FOR>
	<GIVEN>Fault</GIVEN>
	<GIVEN>F53</GIVEN>
	<GIVEN>F56</GIVEN>
