<?xml version="1.0" encoding="US-ASCII"?>
<!--
	Bayesian network in XMLBIF v0.3 (BayesNet Interchange Format)
-->
<!-- DTD for the XMLBIF 0.3 format -->
<!DOCTYPE BIF [
	<!ELEMENT BIF ( NETWORK )*>
	      <!ATTLIST BIF VERSION CDATA #REQUIRED>
	<!ELEMENT NETWORK ( NAME, ( PROPERTY | VARIABLE | DEFINITION )* )>
	<!ELEMENT NAME (#PCDATA)>
	<!ELEMENT VARIABLE ( NAME, ( OUTCOME |  PROPERTY )* ) >
	      <!ATTLIST VARIABLE TYPE (nature|decision|utility) "nature">
	<!ELEMENT OUTCOME (#PCDATA)>
	<!ELEMENT DEFINITION ( FOR | GIVEN | TABLE | PROPERTY )* >
	<!ELEMENT FOR (#PCDATA)>
	<!ELEMENT GIVEN (#PCDATA)>
	<!ELEMENT TABLE (#PCDATA)>
	<!ELEMENT PROPERTY (#PCDATA)>
]>
<BIF VERSION="0.3">
<NETWORK><NAME>win95pts</NAME>

<!-- Variables -->
<VARIABLE TYPE="nature">
	<NAME>AppOK</NAME>
	<OUTCOME>"Correct"</OUTCOME>
	<OUTCOME>"Incorrect_Corrupt"</OUTCOME>
</VARIABLE>
<VARIABLE TYPE="nature">
	<NAME>DataFile</NAME>
	<OUTCOME>"Correct"</OUTCOME>
	<OUTCOME>"Incorrect_Corrupt"</OUTCOME>
</VARIABLE>
<VARIABLE TYPE="nature">
	<NAME>AppData</NAME>
	<OUTCOME>"Correct"</OUTCOME>
	<OUTCOME>"Incorrect_or_corrupt"</OUTCOME>
</VARIABLE>
<VARIABLE TYPE="nature">
	<NAME>DskLocal</NAME>
	<OUTCOME>"Greater_than_2_Mb"</OUTCOME>
	<OUTCOME>"Less_than_2_Mb"</OUTCOME>
</VARIABLE>
<VARIABLE TYPE="nature">
	<NAME>PrtSpool</NAME>
	<OUTCOME>"Enabled"</OUTCOME>
	<OUTCOME>"Disabled"</OUTCOME>
</VARIABLE>
<VARIABLE TYPE="nature">
	<NAME>PrtOn</NAME>
	<OUTCOME>"Yes"</OUTCOME>
	<OUTCOME>"No"</OUTCOME>
</VARIABLE>
<VARIABLE TYPE="nature">
	<NAME>PrtPaper</NAME>
	<OUTCOME>"Has_Paper"</OUTCOME>
	<OUTCOME>"No_Paper"</OUTCOME>
</VARIABLE>
<VARIABLE TYPE="nature">
	<NAME>NetPrint</NAME>
	<OUTCOME>"No__Local_printer_"</OUTCOME>
	<OUTCOME>"Yes__Network_printer_"</OUTCOME>
</VARIABLE>
<VARIABLE TYPE="nature">
	<NAME>PrtDriver</NAME>
	<OUTCOME>"Yes"</OUTCOME>
	<OUTCOME>"No"</OUTCOME>
</VARIABLE>
<VARIABLE TYPE="nature">
	<NAME>PrtThread</NAME>
	<OUTCOME>"OK"</OUTCOME>
	<OUTCOME>"Corrupt_Buggy"</OUTCOME>
</VARIABLE>
<VARIABLE TYPE="nature">
	<NAME>EMFOK</NAME>
	<OUTCOME>"Yes"</OUTCOME>
	<OUTCOME>"No"</OUTCOME>
</VARIABLE>
<VARIABLE TYPE="nature">
	<NAME>GDIIN</NAME>
	<OUTCOME>"Yes"</OUTCOME>
	<OUTCOME>"No"</OUTCOME>
</VARIABLE>
<VARIABLE TYPE="nature">
	<NAME>DrvSet</NAME>
	<OUTCOME>"Correct"</OUTCOME>
	<OUTCOME>"Incorrect"</OUTCOME>
</VARIABLE>
<VARIABLE TYPE="nature">
	<NAME>DrvOK</NAME>
	<OUTCOME>"Reinstalled"</OUTCOME>
	<OUTCOME>"Corrupt"</OUTCOME>
</VARIABLE>
<VARIABLE TYPE="nature">
	<NAME>GDIOUT</NAME>
	<OUTCOME>"Yes"</OUTCOME>
	<OUTCOME>"No"</OUTCOME>
</VARIABLE>
<VARIABLE TYPE="nature">
	<NAME>PrtSel</NAME>
	<OUTCOME>"Yes"</OUTCOME>
	<OUTCOME>"No"</OUTCOME>
</VARIABLE>
<VARIABLE TYPE="nature">
	<NAME>PrtDataOut</NAME>
	<OUTCOME>"Yes"</OUTCOME>
	<OUTCOME>"No"</OUTCOME>
</VARIABLE>
<VARIABLE TYPE="nature">
	<NAME>PrtPath</NAME>
	<OUTCOME>"Correct"</OUTCOME>
	<OUTCOME>"Incorrect"</OUTCOME>
</VARIABLE>
<VARIABLE TYPE="nature">
	<NAME>NtwrkCnfg</NAME>
	<OUTCOME>"Correct"</OUTCOME>
	<OUTCOME>"Incorrect"</OUTCOME>
</VARIABLE>
<VARIABLE TYPE="nature">
	<NAME>PTROFFLINE</NAME>
	<OUTCOME>"Online"</OUTCOME>
	<OUTCOME>"Offline"</OUTCOME>
</VARIABLE>
<VARIABLE TYPE="nature">
	<NAME>NetOK</NAME>
	<OUTCOME>"Yes"</OUTCOME>
	<OUTCOME>"No"</OUTCOME>
</VARIABLE>
<VARIABLE TYPE="nature">
	<NAME>PrtCbl</NAME>
	<OUTCOME>"Connected"</OUTCOME>
	<OUTCOME>"Loose"</OUTCOME>
</VARIABLE>
<VARIABLE TYPE="nature">
	<NAME>PrtPort</NAME>
	<OUTCOME>"Yes"</OUTCOME>
	<OUTCOME>"No"</OUTCOME>
</VARIABLE>
<VARIABLE TYPE="nature">
	<NAME>CblPrtHrdwrOK</NAME>
	<OUTCOME>"Operational"</OUTCOME>
	<OUTCOME>"Not_Operational"</OUTCOME>
</VARIABLE>
<VARIABLE TYPE="nature">
	<NAME>LclOK</NAME>
	<OUTCOME>"Yes"</OUTCOME>
	<OUTCOME>"No"</OUTCOME>
</VARIABLE>
<VARIABLE TYPE="nature">
	<NAME>DSApplctn</NAME>
	<OUTCOME>"DOS"</OUTCOME>
	<OUTCOME>"Windows"</OUTCOME>
</VARIABLE>
<VARIABLE TYPE="nature">
	<NAME>PrtMpTPth</NAME>
	<OUTCOME>"Correct"</OUTCOME>
	<OUTCOME>"Incorrect"</OUTCOME>
</VARIABLE>
<VARIABLE TYPE="nature">
	<NAME>DS_NTOK</NAME>
	<OUTCOME>"Yes"</OUTCOME>
	<OUTCOME>"No"</OUTCOME>
</VARIABLE>
<VARIABLE TYPE="nature">
	<NAME>DS_LCLOK</NAME>
	<OUTCOME>"Yes"</OUTCOME>
	<OUTCOME>"No"</OUTCOME>
</VARIABLE>
<VARIABLE TYPE="nature">
	<NAME>PC2PRT</NAME>
	<OUTCOME>"Yes"</OUTCOME>
	<OUTCOME>"No"</OUTCOME>
</VARIABLE>
<VARIABLE TYPE="nature">
	<NAME>PrtMem</NAME>
	<OUTCOME>"Greater_than_2_Mb"</OUTCOME>
	<OUTCOME>"Less_than_2Mb"</OUTCOME>
</VARIABLE>
<VARIABLE TYPE="nature">
	<NAME>PrtTimeOut</NAME>
	<OUTCOME>"Long_Enough"</OUTCOME>
	<OUTCOME>"Too_Short"</OUTCOME>
</VARIABLE>
<VARIABLE TYPE="nature">
	<NAME>FllCrrptdBffr</NAME>
	<OUTCOME>"Intact__not_Corrupt_"</OUTCOME>
	<OUTCOME>"Full_or_Corrupt"</OUTCOME>
</VARIABLE>
<VARIABLE TYPE="nature">
	<NAME>TnrSpply</NAME>
	<OUTCOME>"Adequate"</OUTCOME>
	<OUTCOME>"Low"</OUTCOME>
</VARIABLE>
<VARIABLE TYPE="nature">
	<NAME>PrtData</NAME>
	<OUTCOME>"Yes"</OUTCOME>
	<OUTCOME>"No"</OUTCOME>
</VARIABLE>
<VARIABLE TYPE="nature">
	<NAME>Problem1</NAME>
	<OUTCOME>"Normal_Output"</OUTCOME>
	<OUTCOME>"No_Output"</OUTCOME>
</VARIABLE>
<VARIABLE TYPE="nature">
	<NAME>AppDtGnTm</NAME>
	<OUTCOME>"Fast_Enough"</OUTCOME>
	<OUTCOME>"Too_Long"</OUTCOME>
</VARIABLE>
<VARIABLE TYPE="nature">
	<NAME>PrntPrcssTm</NAME>
	<OUTCOME>"Fast_Enough"</OUTCOME>
	<OUTCOME>"Too_Long"</OUTCOME>
</VARIABLE>
<VARIABLE TYPE="nature">
	<NAME>DeskPrntSpd</NAME>
	<OUTCOME>"OK"</OUTCOME>
	<OUTCOME>"Too_Slow"</OUTCOME>
</VARIABLE>
<VARIABLE TYPE="nature">
	<NAME>PgOrnttnOK</NAME>
	<OUTCOME>"Correct"</OUTCOME>
	<OUTCOME>"Incorrect"</OUTCOME>
</VARIABLE>
<VARIABLE TYPE="nature">
	<NAME>PrntngArOK</NAME>
	<OUTCOME>"Correct"</OUTCOME>
	<OUTCOME>"Incorrect"</OUTCOME>
</VARIABLE>
<VARIABLE TYPE="nature">
	<NAME>ScrnFntNtPrntrFnt</NAME>
	<OUTCOME>"Yes"</OUTCOME>
	<OUTCOME>"No"</OUTCOME>
</VARIABLE>
<VARIABLE TYPE="nature">
	<NAME>CmpltPgPrntd</NAME>
	<OUTCOME>"Yes"</OUTCOME>
	<OUTCOME>"No"</OUTCOME>
</VARIABLE>
<VARIABLE TYPE="nature">
	<NAME>GrphcsRltdDrvrSttngs</NAME>
	<OUTCOME>"Correct"</OUTCOME>
	<OUTCOME>"Incorrect"</OUTCOME>
</VARIABLE>
<VARIABLE TYPE="nature">
	<NAME>EPSGrphc</NAME>
	<OUTCOME>"No____TIF___WMF___BMP_"</OUTCOME>
	<OUTCOME>"Yes____EPS_"</OUTCOME>
</VARIABLE>
<VARIABLE TYPE="nature">
	<NAME>NnPSGrphc</NAME>
	<OUTCOME>"Yes"</OUTCOME>
	<OUTCOME>"No"</OUTCOME>
</VARIABLE>
<VARIABLE TYPE="nature">
	<NAME>PrtPScript</NAME>
	<OUTCOME>"Yes"</OUTCOME>
	<OUTCOME>"No"</OUTCOME>
</VARIABLE>
<VARIABLE TYPE="nature">
	<NAME>PSGRAPHIC</NAME>
	<OUTCOME>"Yes"</OUTCOME>
	<OUTCOME>"No"</OUTCOME>
</VARIABLE>
<VARIABLE TYPE="nature">
	<NAME>Problem4</NAME>
	<OUTCOME>"No"</OUTCOME>
	<OUTCOME>"Yes"</OUTCOME>
</VARIABLE>
<VARIABLE TYPE="nature">
	<NAME>TrTypFnts</NAME>
	<OUTCOME>"Yes"</OUTCOME>
	<OUTCOME>"No"</OUTCOME>
</VARIABLE>
<VARIABLE TYPE="nature">
	<NAME>FntInstlltn</NAME>
	<OUTCOME>"Verified"</OUTCOME>
	<OUTCOME>"Faulty"</OUTCOME>
</VARIABLE>
<VARIABLE TYPE="nature">
	<NAME>PrntrAccptsTrtyp</NAME>
	<OUTCOME>"Yes"</OUTCOME>
	<OUTCOME>"No"</OUTCOME>
</VARIABLE>
<VARIABLE TYPE="nature">
	<NAME>TTOK</NAME>
	<OUTCOME>"Yes"</OUTCOME>
	<OUTCOME>"No"</OUTCOME>
</VARIABLE>
<VARIABLE TYPE="nature">
	<NAME>NnTTOK</NAME>
	<OUTCOME>"Yes"</OUTCOME>
	<OUTCOME>"No"</OUTCOME>
</VARIABLE>
<VARIABLE TYPE="nature">
	<NAME>Problem5</NAME>
	<OUTCOME>"No"</OUTCOME>
	<OUTCOME>"Yes"</OUTCOME>
</VARIABLE>
<VARIABLE TYPE="nature">
	<NAME>LclGrbld</NAME>
	<OUTCOME>"Yes"</OUTCOME>
	<OUTCOME>"No"</OUTCOME>
</VARIABLE>
<VARIABLE TYPE="nature">
	<NAME>NtGrbld</NAME>
	<OUTCOME>"Yes"</OUTCOME>
	<OUTCOME>"No"</OUTCOME>
</VARIABLE>
<VARIABLE TYPE="nature">
	<NAME>GrbldOtpt</NAME>
	<OUTCOME>"No"</OUTCOME>
	<OUTCOME>"Yes"</OUTCOME>
</VARIABLE>
<VARIABLE TYPE="nature">
	<NAME>HrglssDrtnAftrPrnt</NAME>
	<OUTCOME>"Fast_Enough"</OUTCOME>
	<OUTCOME>"Too_Long"</OUTCOME>
</VARIABLE>
<VARIABLE TYPE="nature">
	<NAME>REPEAT</NAME>
	<OUTCOME>"Yes__Always_the_Same_"</OUTCOME>
	<OUTCOME>"No__Different_Each_Time_"</OUTCOME>
</VARIABLE>
<VARIABLE TYPE="nature">
	<NAME>AvlblVrtlMmry</NAME>
	<OUTCOME>"Adequate____1Mb_"</OUTCOME>
	<OUTCOME>"Inadequate____1_Mb_"</OUTCOME>
</VARIABLE>
<VARIABLE TYPE="nature">
	<NAME>PSERRMEM</NAME>
	<OUTCOME>"No_Error"</OUTCOME>
	<OUTCOME>"Low_Memory"</OUTCOME>
</VARIABLE>
<VARIABLE TYPE="nature">
	<NAME>TstpsTxt</NAME>
	<OUTCOME>"x_1_Mb_Available_VM"</OUTCOME>
	<OUTCOME>"x_1_Mb_Available_VM2"</OUTCOME>
</VARIABLE>
<VARIABLE TYPE="nature">
	<NAME>GrbldPS</NAME>
	<OUTCOME>"No"</OUTCOME>
	<OUTCOME>"Yes"</OUTCOME>
</VARIABLE>
<VARIABLE TYPE="nature">
	<NAME>IncmpltPS</NAME>
	<OUTCOME>"Yes"</OUTCOME>
	<OUTCOME>"No"</OUTCOME>
</VARIABLE>
<VARIABLE TYPE="nature">
	<NAME>PrtFile</NAME>
	<OUTCOME>"Yes"</OUTCOME>
	<OUTCOME>"No"</OUTCOME>
</VARIABLE>
<VARIABLE TYPE="nature">
	<NAME>PrtIcon</NAME>
	<OUTCOME>"Normal"</OUTCOME>
	<OUTCOME>"Grayed_Out"</OUTCOME>
</VARIABLE>
<VARIABLE TYPE="nature">
	<NAME>Problem6</NAME>
	<OUTCOME>"No"</OUTCOME>
	<OUTCOME>"Yes"</OUTCOME>
</VARIABLE>
<VARIABLE TYPE="nature">
	<NAME>Problem3</NAME>
	<OUTCOME>"No"</OUTCOME>
	<OUTCOME>"Yes"</OUTCOME>
</VARIABLE>
<VARIABLE TYPE="nature">
	<NAME>PrtQueue</NAME>
	<OUTCOME>"Short"</OUTCOME>
	<OUTCOME>"Long"</OUTCOME>
</VARIABLE>
<VARIABLE TYPE="nature">
	<NAME>NtSpd</NAME>
	<OUTCOME>"OK"</OUTCOME>
	<OUTCOME>"Slow"</OUTCOME>
</VARIABLE>
<VARIABLE TYPE="nature">
	<NAME>Problem2</NAME>
	<OUTCOME>"OK"</OUTCOME>
	<OUTCOME>"Too_Long"</OUTCOME>
</VARIABLE>
<VARIABLE TYPE="nature">
	<NAME>PrtStatPaper</NAME>
	<OUTCOME>"No_Error"</OUTCOME>
	<OUTCOME>"Jam__Out__Bin_Full"</OUTCOME>
</VARIABLE>
<VARIABLE TYPE="nature">
	<NAME>PrtStatToner</NAME>
	<OUTCOME>"No_Error"</OUTCOME>
	<OUTCOME>"Low__None"</OUTCOME>
</VARIABLE>
<VARIABLE TYPE="nature">
	<NAME>PrtStatMem</NAME>
	<OUTCOME>"No_Error"</OUTCOME>
	<OUTCOME>"Out_of_Memory"</OUTCOME>
</VARIABLE>
<VARIABLE TYPE="nature">
	<NAME>PrtStatOff</NAME>
	<OUTCOME>"No_Error"</OUTCOME>
	<OUTCOME>"OFFLINE__OFF"</OUTCOME>
</VARIABLE>
<DEFINITION>
	<FOR>AppOK</FOR>
	<TABLE>0.99500000 0.00500000 </TABLE>
</DEFINITION>

<DEFINITION>
	<FOR>DataFile</FOR>
	<TABLE>0.99500000 0.00500000 </TABLE>
</DEFINITION>

<DEFINITION>
	<FOR>AppData</FOR>
	<GIVEN>AppOK</GIVEN>
	<GIVEN>DataFile</GIVEN>
	<TABLE>0.99990000 0.00010000 0.00000000 1.00000000 0.00000000 1.00000000 0.50000000 0.50000000 </TABLE>
</DEFINITION>

<DEFINITION>
	<FOR>DskLocal</FOR>
	<TABLE>0.97000000 0.03000000 </TABLE>
</DEFINITION>

<DEFINITION>
	<FOR>PrtSpool</FOR>
	<TABLE>0.95000000 0.05000000 </TABLE>
</DEFINITION>

<DEFINITION>
	<FOR>PrtOn</FOR>
	<TABLE>0.90000000 0.10000000 </TABLE>
</DEFINITION>

<DEFINITION>
	<FOR>PrtPaper</FOR>
	<TABLE>0.98000000 0.02000000 </TABLE>
</DEFINITION>

<DEFINITION>
	<FOR>NetPrint</FOR>
	<TABLE>0.80000000 0.20000000 </TABLE>
</DEFINITION>

<DEFINITION>
	<FOR>PrtDriver</FOR>
	<TABLE>0.90000000 0.10000000 </TABLE>
</DEFINITION>

<DEFINITION>
	<FOR>PrtThread</FOR>
	<TABLE>0.99990000 0.00010000 </TABLE>
</DEFINITION>

<DEFINITION>
	<FOR>EMFOK</FOR>
	<GIVEN>AppData</GIVEN>
	<GIVEN>DskLocal</GIVEN>
	<GIVEN>PrtThread</GIVEN>
	<TABLE>0.99000000 0.01000000 0.05000000 0.95000000 0.00000000 1.00000000 0.50000000 0.50000000 0.10000000 0.90000000 0.50000000 0.50000000 0.50000000 0.50000000 0.50000000 0.50000000 </TABLE>
</DEFINITION>

<DEFINITION>
	<FOR>GDIIN</FOR>
	<GIVEN>AppData</GIVEN>
	<GIVEN>PrtSpool</GIVEN>
	<GIVEN>EMFOK</GIVEN>
	<TABLE>1.00000000 0.00000000 0.00000000 1.00000000 1.00000000 0.00000000 1.00000000 0.00000000 0.00000000 1.00000000 0.00000000 1.00000000 0.00000000 1.00000000 0.00000000 1.00000000 </TABLE>
</DEFINITION>

<DEFINITION>
	<FOR>DrvSet</FOR>
	<TABLE>0.99000000 0.01000000 </TABLE>
</DEFINITION>

<DEFINITION>
	<FOR>DrvOK</FOR>
	<TABLE>0.99000000 0.01000000 </TABLE>
</DEFINITION>

<DEFINITION>
	<FOR>GDIOUT</FOR>
	<GIVEN>PrtDriver</GIVEN>
	<GIVEN>GDIIN</GIVEN>
	<GIVEN>DrvSet</GIVEN>
	<GIVEN>DrvOK</GIVEN>
	<TABLE>0.99000000 0.01000000 0.20000000 0.80000000 0.90000000 0.10000000 0.50000000 0.50000000 0.10000000 0.90000000 0.50000000 0.50000000 0.50000000 0.50000000 0.50000000 0.50000000 0.10000000 0.90000000 0.50000000 0.50000000 0.50000000 0.50000000 0.50000000 0.50000000 0.50000000 0.50000000 0.50000000 0.50000000 0.50000000 0.50000000 0.50000000 0.50000000 </TABLE>
</DEFINITION>

<DEFINITION>
	<FOR>PrtSel</FOR>
	<TABLE>0.99000000 0.01000000 </TABLE>
</DEFINITION>

<DEFINITION>
	<FOR>PrtDataOut</FOR>
	<GIVEN>GDIOUT</GIVEN>
	<GIVEN>PrtSel</GIVEN>
	<TABLE>0.99000000 0.01000000 0.00000000 1.00000000 0.00000000 1.00000000 0.50000000 0.50000000 </TABLE>
</DEFINITION>

<DEFINITION>
	<FOR>PrtPath</FOR>
	<TABLE>0.97000000 0.03000000 </TABLE>
</DEFINITION>

<DEFINITION>
	<FOR>NtwrkCnfg</FOR>
	<TABLE>0.98000000 0.02000000 </TABLE>
</DEFINITION>

<DEFINITION>
	<FOR>PTROFFLINE</FOR>
	<TABLE>0.70000000 0.30000000 </TABLE>
</DEFINITION>

<DEFINITION>
	<FOR>NetOK</FOR>
	<GIVEN>PrtPath</GIVEN>
	<GIVEN>NtwrkCnfg</GIVEN>
	<GIVEN>PTROFFLINE</GIVEN>
	<TABLE>0.99000000 0.01000000 0.00000000 1.00000000 0.10000000 0.90000000 0.50000000 0.50000000 0.00000000 1.00000000 0.50000000 0.50000000 0.50000000 0.50000000 0.50000000 0.50000000 </TABLE>
</DEFINITION>

<DEFINITION>
	<FOR>PrtCbl</FOR>
	<TABLE>0.98000000 0.02000000 </TABLE>
</DEFINITION>

<DEFINITION>
	<FOR>PrtPort</FOR>
	<TABLE>0.99000000 0.01000000 </TABLE>
</DEFINITION>

<DEFINITION>
	<FOR>CblPrtHrdwrOK</FOR>
	<TABLE>0.99000000 0.01000000 </TABLE>
</DEFINITION>

<DEFINITION>
	<FOR>LclOK</FOR>
	<GIVEN>PrtCbl</GIVEN>
	<GIVEN>PrtPort</GIVEN>
	<GIVEN>CblPrtHrdwrOK</GIVEN>
	<TABLE>0.99900000 0.00100000 0.01000000 0.99000000 0.00000000 1.00000000 0.50000000 0.50000000 0.00000000 1.00000000 0.50000000 0.50000000 0.50000000 0.50000000 0.50000000 0.50000000 </TABLE>
</DEFINITION>

<DEFINITION>
	<FOR>DSApplctn</FOR>
	<TABLE>0.15000000 0.85000000 </TABLE>
</DEFINITION>

<DEFINITION>
	<FOR>PrtMpTPth</FOR>
	<TABLE>0.80000000 0.20000000 </TABLE>
</DEFINITION>

<DEFINITION>
	<FOR>DS_NTOK</FOR>
	<GIVEN>AppData</GIVEN>
	<GIVEN>PrtPath</GIVEN>
	<GIVEN>PrtMpTPth</GIVEN>
	<GIVEN>NtwrkCnfg</GIVEN>
	<GIVEN>PTROFFLINE</GIVEN>
	<TABLE>0.99000000 0.01000000 0.00000000 1.00000000 0.10000000 0.90000000 0.50000000 0.50000000 0.00000000 1.00000000 0.50000000 0.50000000 0.50000000 0.50000000 0.50000000 0.50000000 0.00000000 1.00000000 0.50000000 0.50000000 0.50000000 0.50000000 0.50000000 0.50000000 0.50000000 0.50000000 0.50000000 0.50000000 0.50000000 0.50000000 0.50000000 0.50000000 0.20000000 0.80000000 0.50000000 0.50000000 0.50000000 0.50000000 0.50000000 0.50000000 0.50000000 0.50000000 0.50000000 0.50000000 0.50000000 0.50000000 0.50000000 0.50000000 0.50000000 0.50000000 0.50000000 0.50000000 0.50000000 0.50000000 0.50000000 0.50000000 0.50000000 0.50000000 0.50000000 0.50000000 0.50000000 0.50000000 0.50000000 0.50000000 </TABLE>
</DEFINITION>

<DEFINITION>
	<FOR>DS_LCLOK</FOR>
	<GIVEN>AppData</GIVEN>
	<GIVEN>PrtCbl</GIVEN>
	<GIVEN>PrtPort</GIVEN>
	<GIVEN>CblPrtHrdwrOK</GIVEN>
	<TABLE>1.00000000 0.00000000 0.10000000 0.90000000 0.00000000 1.00000000 0.50000000 0.50000000 0.00000000 1.00000000 0.50000000 0.50000000 0.50000000 0.50000000 0.50000000 0.50000000 0.10000000 0.90000000 0.50000000 0.50000000 0.50000000 0.50000000 0.50000000 0.50000000 0.50000000 0.50000000 0.50000000 0.50000000 0.50000000 0.50000000 0.50000000 0.50000000 </TABLE>
</DEFINITION>

<DEFINITION>
	<FOR>PC2PRT</FOR>
	<GIVEN>NetPrint</GIVEN>
	<GIVEN>PrtDataOut</GIVEN>
	<GIVEN>NetOK</GIVEN>
	<GIVEN>LclOK</GIVEN>
	<GIVEN>DSApplctn</GIVEN>
	<GIVEN>DS_NTOK</GIVEN>
	<GIVEN>DS_LCLOK</GIVEN>
	<TABLE>1.00000000 0.00000000 0.00000000 1.00000000 1.00000000 0.00000000 0.00000000 1.00000000 1.00000000 0.00000000 1.00000000 0.00000000 1.00000000 0.00000000 1.00000000 0.00000000 1.00000000 0.00000000 0.00000000 1.00000000 1.00000000 0.00000000 0.00000000 1.00000000 0.00000000 1.00000000 0.00000000 1.00000000 0.00000000 1.00000000 0.00000000 1.00000000 1.00000000 0.00000000 0.00000000 1.00000000 1.00000000 0.00000000 0.00000000 1.00000000 1.00000000 0.00000000 1.00000000 0.00000000 1.00000000 0.00000000 1.00000000 0.00000000 1.00000000 0.00000000 0.00000000 1.00000000 1.00000000 0.00000000 0.00000000 1.00000000 0.00000000 1.00000000 0.00000000 1.00000000 0.00000000 1.00000000 0.00000000 1.00000000 1.00000000 0.00000000 0.00000000 1.00000000 1.00000000 0.00000000 0.00000000 1.00000000 0.00000000 1.00000000 0.00000000 1.00000000 0.00000000 1.00000000 0.00000000 1.00000000 1.00000000 0.00000000 0.00000000 1.00000000 1.00000000 0.00000000 0.00000000 1.00000000 0.00000000 1.00000000 0.00000000 1.00000000 0.00000000 1.00000000 0.00000000 1.00000000 1.00000000 0.00000000 0.00000000 1.00000000 1.00000000 0.00000000 0.00000000 1.00000000 0.00000000 1.00000000 0.00000000 1.00000000 0.00000000 1.00000000 0.00000000 1.00000000 1.00000000 0.00000000 0.00000000 1.00000000 1.00000000 0.00000000 0.00000000 1.00000000 0.00000000 1.00000000 0.00000000 1.00000000 0.00000000 1.00000000 0.00000000 1.00000000 1.00000000 0.00000000 1.00000000 0.00000000 0.00000000 1.00000000 0.00000000 1.00000000 1.00000000 0.00000000 1.00000000 0.00000000 1.00000000 0.00000000 1.00000000 0.00000000 1.00000000 0.00000000 1.00000000 0.00000000 0.00000000 1.00000000 0.00000000 1.00000000 1.00000000 0.00000000 1.00000000 0.00000000 1.00000000 0.00000000 1.00000000 0.00000000 1.00000000 0.00000000 1.00000000 0.00000000 0.00000000 1.00000000 0.00000000 1.00000000 0.00000000 1.00000000 0.00000000 1.00000000 0.00000000 1.00000000 0.00000000 1.00000000 1.00000000 0.00000000 1.00000000 0.00000000 0.00000000 1.00000000 0.00000000 1.00000000 0.00000000 1.00000000 0.00000000 1.00000000 0.00000000 1.00000000 0.00000000 1.00000000 1.00000000 0.00000000 1.00000000 0.00000000 0.00000000 1.00000000 0.00000000 1.00000000 0.00000000 1.00000000 0.00000000 1.00000000 0.00000000 1.00000000 0.00000000 1.00000000 1.00000000 0.00000000 1.00000000 0.00000000 0.00000000 1.00000000 0.00000000 1.00000000 0.00000000 1.00000000 0.00000000 1.00000000 0.00000000 1.00000000 0.00000000 1.00000000 1.00000000 0.00000000 1.00000000 0.00000000 0.00000000 1.00000000 0.00000000 1.00000000 0.00000000 1.00000000 0.00000000 1.00000000 0.00000000 1.00000000 0.00000000 1.00000000 1.00000000 0.00000000 1.00000000 0.00000000 0.00000000 1.00000000 0.00000000 1.00000000 0.00000000 1.00000000 0.00000000 1.00000000 0.00000000 1.00000000 0.00000000 1.00000000 </TABLE>
</DEFINITION>

<DEFINITION>
	<FOR>PrtMem</FOR>
	<TABLE>0.95000000 0.05000000 </TABLE>
</DEFINITION>

<DEFINITION>
	<FOR>PrtTimeOut</FOR>
	<TABLE>0.94000000 0.06000000 </TABLE>
</DEFINITION>

<DEFINITION>
	<FOR>FllCrrptdBffr</FOR>
	<TABLE>0.85000000 0.15000000 </TABLE>
</DEFINITION>

<DEFINITION>
	<FOR>TnrSpply</FOR>
	<TABLE>0.99500000 0.00500000 </TABLE>
</DEFINITION>

<DEFINITION>
	<FOR>PrtData</FOR>
	<GIVEN>PrtOn</GIVEN>
	<GIVEN>PrtPaper</GIVEN>
	<GIVEN>PC2PRT</GIVEN>
	<GIVEN>PrtMem</GIVEN>
	<GIVEN>PrtTimeOut</GIVEN>
	<GIVEN>FllCrrptdBffr</GIVEN>
	<GIVEN>TnrSpply</GIVEN>
	<TABLE>0.99000000 0.01000000 0.01000000 0.99000000 0.02000000 0.98000000 0.50000000 0.50000000 0.00000000 1.00000000 0.50000000 0.50000000 0.50000000 0.50000000 0.50000000 0.50000000 0.10000000 0.90000000 0.50000000 0.50000000 0.50000000 0.50000000 0.50000000 0.50000000 0.50000000 0.50000000 0.50000000 0.50000000 0.50000000 0.50000000 0.50000000 0.50000000 0.00000000 1.00000000 0.50000000 0.50000000 0.50000000 0.50000000 0.50000000 0.50000000 0.50000000 0.50000000 0.50000000 0.50000000 0.50000000 0.50000000 0.50000000 0.50000000 0.50000000 0.50000000 0.50000000 0.50000000 0.50000000 0.50000000 0.50000000 0.50000000 0.50000000 0.50000000 0.50000000 0.50000000 0.50000000 0.50000000 0.50000000 0.50000000 0.00000000 1.00000000 0.50000000 0.50000000 0.50000000 0.50000000 0.50000000 0.50000000 0.50000000 0.50000000 0.50000000 0.50000000 0.50000000 0.50000000 0.50000000 0.50000000 0.50000000 0.50000000 0.50000000 0.50000000 0.50000000 0.50000000 0.50000000 0.50000000 0.50000000 0.50000000 0.50000000 0.50000000 0.50000000 0.50000000 0.50000000 0.50000000 0.50000000 0.50000000 0.50000000 0.50000000 0.50000000 0.50000000 0.50000000 0.50000000 0.50000000 0.50000000 0.50000000 0.50000000 0.50000000 0.50000000 0.50000000 0.50000000 0.50000000 0.50000000 0.50000000 0.50000000 0.50000000 0.50000000 0.50000000 0.50000000 0.50000000 0.50000000 0.50000000 0.50000000 0.50000000 0.50000000 0.50000000 0.50000000 0.00000000 1.00000000 0.50000000 0.50000000 0.50000000 0.50000000 0.50000000 0.50000000 0.50000000 0.50000000 0.50000000 0.50000000 0.50000000 0.50000000 0.50000000 0.50000000 0.50000000 0.50000000 0.50000000 0.50000000 0.50000000 0.50000000 0.50000000 0.50000000 0.50000000 0.50000000 0.50000000 0.50000000 0.50000000 0.50000000 0.50000000 0.50000000 0.50000000 0.50000000 0.50000000 0.50000000 0.50000000 0.50000000 0.50000000 0.50000000 0.50000000 0.50000000 0.50000000 0.50000000 0.50000000 0.50000000 0.50000000 0.50000000 0.50000000 0.50000000 0.50000000 0.50000000 0.50000000 0.50000000 0.50000000 0.50000000 0.50000000 0.50000000 0.50000000 0.50000000 0.50000000 0.50000000 0.50000000 0.50000000 0.50000000 0.50000000 0.50000000 0.50000000 0.50000000 0.50000000 0.50000000 0.50000000 0.50000000 0.50000000 0.50000000 0.50000000 0.50000000 0.50000000 0.50000000 0.50000000 0.50000000 0.50000000 0.50000000 0.50000000 0.50000000 0.50000000 0.50000000 0.50000000 0.50000000 0.50000000 0.50000000 0.50000000 0.50000000 0.50000000 0.50000000 0.50000000 0.50000000 0.50000000 0.50000000 0.50000000 0.50000000 0.50000000 0.50000000 0.50000000 0.50000000 0.50000000 0.50000000 0.50000000 0.50000000 0.50000000 0.50000000 0.50000000 0.50000000 0.50000000 0.50000000 0.50000000 0.50000000 0.50000000 0.50000000 0.50000000 0.50000000 0.50000000 0.50000000 0.50000000 0.50000000 0.50000000 0.50000000 0.50000000 </TABLE>
</DEFINITION>

<DEFINITION>
	<FOR>Problem1</FOR>
	<GIVEN>PrtData</GIVEN>
	<TABLE>1.00000000 0.00000000 0.00000000 1.00000000 </TABLE>
</DEFINITION>

<DEFINITION>
	<FOR>AppDtGnTm</FOR>
	<GIVEN>PrtSpool</GIVEN>
	<TABLE>1.00000000 0.00000000 0.99000001 0.00999999 </TABLE>
</DEFINITION>

<DEFINITION>
	<FOR>PrntPrcssTm</FOR>
	<GIVEN>PrtSpool</GIVEN>
	<TABLE>0.99000001 0.00999999 1.00000000 0.00000000 </TABLE>
</DEFINITION>

<DEFINITION>
	<FOR>DeskPrntSpd</FOR>
	<GIVEN>PrtMem</GIVEN>
	<GIVEN>AppDtGnTm</GIVEN>
	<GIVEN>PrntPrcssTm</GIVEN>
	<TABLE>0.99900001 0.00099999 0.00099999 0.99900001 0.00099999 0.99900001 0.50000000 0.50000000 0.25000000 0.75000000 0.50000000 0.50000000 0.50000000 0.50000000 0.50000000 0.50000000 </TABLE>
</DEFINITION>

<DEFINITION>
	<FOR>PgOrnttnOK</FOR>
	<TABLE>0.95000000 0.05000000 </TABLE>
</DEFINITION>

<DEFINITION>
	<FOR>PrntngArOK</FOR>
	<TABLE>0.98000000 0.02000000 </TABLE>
</DEFINITION>

<DEFINITION>
	<FOR>ScrnFntNtPrntrFnt</FOR>
	<TABLE>0.95000000 0.05000000 </TABLE>
</DEFINITION>

<DEFINITION>
	<FOR>CmpltPgPrntd</FOR>
	<GIVEN>PrtMem</GIVEN>
	<GIVEN>PgOrnttnOK</GIVEN>
	<GIVEN>PrntngArOK</GIVEN>
	<TABLE>0.99000000 0.01000000 0.10000000 0.90000000 0.00999999 0.99000001 0.50000000 0.50000000 0.30000000 0.70000000 0.50000000 0.50000000 0.50000000 0.50000000 0.50000000 0.50000000 </TABLE>
</DEFINITION>

<DEFINITION>
	<FOR>GrphcsRltdDrvrSttngs</FOR>
	<TABLE>0.95000000 0.05000000 </TABLE>
</DEFINITION>

<DEFINITION>
	<FOR>EPSGrphc</FOR>
	<TABLE>0.99000000 0.01000000 </TABLE>
</DEFINITION>

<DEFINITION>
	<FOR>NnPSGrphc</FOR>
	<GIVEN>PrtMem</GIVEN>
	<GIVEN>GrphcsRltdDrvrSttngs</GIVEN>
	<GIVEN>EPSGrphc</GIVEN>
	<TABLE>0.99900000 0.00100000 0.00000000 1.00000000 0.10000000 0.90000000 0.50000000 0.50000000 0.25000000 0.75000000 0.50000000 0.50000000 0.50000000 0.50000000 0.50000000 0.50000000 </TABLE>
</DEFINITION>

<DEFINITION>
	<FOR>PrtPScript</FOR>
	<TABLE>0.40000000 0.60000000 </TABLE>
</DEFINITION>

<DEFINITION>
	<FOR>PSGRAPHIC</FOR>
	<GIVEN>PrtMem</GIVEN>
	<GIVEN>GrphcsRltdDrvrSttngs</GIVEN>
	<GIVEN>EPSGrphc</GIVEN>
	<TABLE>0.99900000 0.00100000 1.00000000 0.00000000 0.10000000 0.90000000 0.50000000 0.50000000 0.25000000 0.75000000 0.50000000 0.50000000 0.50000000 0.50000000 0.50000000 0.50000000 </TABLE>
</DEFINITION>

<DEFINITION>
	<FOR>Problem4</FOR>
	<GIVEN>NnPSGrphc</GIVEN>
	<GIVEN>PrtPScript</GIVEN>
	<GIVEN>PSGRAPHIC</GIVEN>
	<TABLE>0.00000000 1.00000000 1.00000000 0.00000000 0.00000000 1.00000000 0.00000000 1.00000000 0.00000000 1.00000000 1.00000000 0.00000000 1.00000000 0.00000000 1.00000000 0.00000000 </TABLE>
</DEFINITION>

<DEFINITION>
	<FOR>TrTypFnts</FOR>
	<TABLE>0.90000000 0.10000000 </TABLE>
</DEFINITION>

<DEFINITION>
	<FOR>FntInstlltn</FOR>
	<TABLE>0.98000000 0.02000000 </TABLE>
</DEFINITION>

<DEFINITION>
	<FOR>PrntrAccptsTrtyp</FOR>
	<TABLE>0.90000000 0.10000000 </TABLE>
</DEFINITION>

<DEFINITION>
	<FOR>TTOK</FOR>
	<GIVEN>PrtMem</GIVEN>
	<GIVEN>FntInstlltn</GIVEN>
	<GIVEN>PrntrAccptsTrtyp</GIVEN>
	<TABLE>0.99000001 0.00999999 0.00000000 1.00000000 0.10000000 0.90000000 0.50000000 0.50000000 0.50000000 0.50000000 0.50000000 0.50000000 0.50000000 0.50000000 0.50000000 0.50000000 </TABLE>
</DEFINITION>

<DEFINITION>
	<FOR>NnTTOK</FOR>
	<GIVEN>PrtMem</GIVEN>
	<GIVEN>ScrnFntNtPrntrFnt</GIVEN>
	<GIVEN>FntInstlltn</GIVEN>
	<TABLE>0.99000001 0.00999999 0.10000000 0.90000000 0.10000000 0.90000000 0.50000000 0.50000000 0.50000000 0.50000000 0.50000000 0.50000000 0.50000000 0.50000000 0.50000000 0.50000000 </TABLE>
</DEFINITION>

<DEFINITION>
	<FOR>Problem5</FOR>
	<GIVEN>TrTypFnts</GIVEN>
	<GIVEN>TTOK</GIVEN>
	<GIVEN>NnTTOK</GIVEN>
	<TABLE>0.00000000 1.00000000 0.00000000 1.00000000 1.00000000 0.00000000 1.00000000 0.00000000 0.00000000 1.00000000 1.00000000 0.00000000 0.00000000 1.00000000 1.00000000 0.00000000 </TABLE>
</DEFINITION>

<DEFINITION>
	<FOR>LclGrbld</FOR>
	<GIVEN>AppData</GIVEN>
	<GIVEN>PrtDriver</GIVEN>
	<GIVEN>PrtMem</GIVEN>
	<GIVEN>CblPrtHrdwrOK</GIVEN>
	<TABLE>1.00000000 0.00000000 0.10000000 0.90000000 0.20000000 0.80000000 0.50000000 0.50000000 0.40000000 0.60000000 0.50000000 0.50000000 0.50000000 0.50000000 0.50000000 0.50000000 0.20000000 0.80000000 0.50000000 0.50000000 0.50000000 0.50000000 0.50000000 0.50000000 0.50000000 0.50000000 0.50000000 0.50000000 0.50000000 0.50000000 0.50000000 0.50000000 </TABLE>
</DEFINITION>

<DEFINITION>
	<FOR>NtGrbld</FOR>
	<GIVEN>AppData</GIVEN>
	<GIVEN>PrtDriver</GIVEN>
	<GIVEN>PrtMem</GIVEN>
	<GIVEN>NtwrkCnfg</GIVEN>
	<TABLE>1.00000000 0.00000000 0.40000000 0.60000000 0.20000000 0.80000000 0.50000000 0.50000000 0.40000000 0.60000000 0.50000000 0.50000000 0.50000000 0.50000000 0.50000000 0.50000000 0.30000000 0.70000000 0.50000000 0.50000000 0.50000000 0.50000000 0.50000000 0.50000000 0.50000000 0.50000000 0.50000000 0.50000000 0.50000000 0.50000000 0.50000000 0.50000000 </TABLE>
</DEFINITION>

<DEFINITION>
	<FOR>GrbldOtpt</FOR>
	<GIVEN>NetPrint</GIVEN>
	<GIVEN>LclGrbld</GIVEN>
	<GIVEN>NtGrbld</GIVEN>
	<TABLE>1.00000000 0.00000000 1.00000000 0.00000000 0.00000000 1.00000000 0.00000000 1.00000000 1.00000000 0.00000000 0.00000000 1.00000000 1.00000000 0.00000000 0.00000000 1.00000000 </TABLE>
</DEFINITION>

<DEFINITION>
	<FOR>HrglssDrtnAftrPrnt</FOR>
	<GIVEN>AppDtGnTm</GIVEN>
	<TABLE>0.99000000 0.01000000 0.10000000 0.90000000 </TABLE>
</DEFINITION>

<DEFINITION>
	<FOR>REPEAT</FOR>
	<GIVEN>CblPrtHrdwrOK</GIVEN>
	<GIVEN>NtwrkCnfg</GIVEN>
	<TABLE>1.00000000 0.00000000 0.50000000 0.50000000 0.50000000 0.50000000 0.50000000 0.50000000 </TABLE>
</DEFINITION>

<DEFINITION>
	<FOR>AvlblVrtlMmry</FOR>
	<GIVEN>PrtPScript</GIVEN>
	<TABLE>0.98000000 0.02000000 1.00000000 0.00000000 </TABLE>
</DEFINITION>

<DEFINITION>
	<FOR>PSERRMEM</FOR>
	<GIVEN>PrtPScript</GIVEN>
	<GIVEN>AvlblVrtlMmry</GIVEN>
	<TABLE>1.00000000 0.00000000 0.05000000 0.95000000 1.00000000 0.00000000 1.00000000 0.00000000 </TABLE>
</DEFINITION>

<DEFINITION>
	<FOR>TstpsTxt</FOR>
	<GIVEN>PrtPScript</GIVEN>
	<GIVEN>AvlblVrtlMmry</GIVEN>
	<TABLE>0.99900001 0.00099999 0.00099999 0.99900001 1.00000000 0.00000000 1.00000000 0.00000000 </TABLE>
</DEFINITION>

<DEFINITION>
	<FOR>GrbldPS</FOR>
	<GIVEN>GrbldOtpt</GIVEN>
	<GIVEN>AvlblVrtlMmry</GIVEN>
	<TABLE>1.00000000 0.00000000 0.10000000 0.90000000 0.00000000 1.00000000 0.50000000 0.50000000 </TABLE>
</DEFINITION>

<DEFINITION>
	<FOR>IncmpltPS</FOR>
	<GIVEN>CmpltPgPrntd</GIVEN>
	<GIVEN>AvlblVrtlMmry</GIVEN>
	<TABLE>1.00000000 0.00000000 0.30000000 0.70000000 0.00000000 1.00000000 0.50000000 0.50000000 </TABLE>
</DEFINITION>

<DEFINITION>
	<FOR>PrtFile</FOR>
	<GIVEN>PrtDataOut</GIVEN>
	<TABLE>0.80000000 0.20000000 0.20000000 0.80000000 </TABLE>
</DEFINITION>

<DEFINITION>
	<FOR>PrtIcon</FOR>
	<GIVEN>NtwrkCnfg</GIVEN>
	<GIVEN>PTROFFLINE</GIVEN>
	<TABLE>0.99990000 0.00010000 0.70000000 0.30000000 0.25000000 0.75000000 0.50000000 0.50000000 </TABLE>
</DEFINITION>

<DEFINITION>
	<FOR>Problem6</FOR>
	<GIVEN>GrbldOtpt</GIVEN>
	<GIVEN>PrtPScript</GIVEN>
	<GIVEN>GrbldPS</GIVEN>
	<TABLE>1.00000000 0.00000000 0.00000000 1.00000000 1.00000000 0.00000000 1.00000000 0.00000000 1.00000000 0.00000000 0.00000000 1.00000000 0.00000000 1.00000000 0.00000000 1.00000000 </TABLE>
</DEFINITION>

<DEFINITION>
	<FOR>Problem3</FOR>
	<GIVEN>CmpltPgPrntd</GIVEN>
	<GIVEN>PrtPScript</GIVEN>
	<GIVEN>IncmpltPS</GIVEN>
	<TABLE>0.00000000 1.00000000 1.00000000 0.00000000 0.00000000 1.00000000 0.00000000 1.00000000 0.00000000 1.00000000 1.00000000 0.00000000 1.00000000 0.00000000 1.00000000 0.00000000 </TABLE>
</DEFINITION>

<DEFINITION>
	<FOR>PrtQueue</FOR>
	<TABLE>0.99000000 0.01000000 </TABLE>
</DEFINITION>

<DEFINITION>
	<FOR>NtSpd</FOR>
	<GIVEN>DeskPrntSpd</GIVEN>
	<GIVEN>NtwrkCnfg</GIVEN>
	<GIVEN>PrtQueue</GIVEN>
	<TABLE>0.99900001 0.00099999 0.25000000 0.75000000 0.25000000 0.75000000 0.50000000 0.50000000 0.00000000 1.00000000 0.50000000 0.50000000 0.50000000 0.50000000 0.50000000 0.50000000 </TABLE>
</DEFINITION>

<DEFINITION>
	<FOR>Problem2</FOR>
	<GIVEN>NetPrint</GIVEN>
	<GIVEN>DeskPrntSpd</GIVEN>
	<GIVEN>NtSpd</GIVEN>
	<TABLE>1.00000000 0.00000000 1.00000000 0.00000000 0.00000000 1.00000000 0.00000000 1.00000000 1.00000000 0.00000000 0.00000000 1.00000000 1.00000000 0.00000000 0.00000000 1.00000000 </TABLE>
</DEFINITION>

<DEFINITION>
	<FOR>PrtStatPaper</FOR>
	<GIVEN>PrtPaper</GIVEN>
	<TABLE>0.99900001 0.00099999 0.00099999 0.99900001 </TABLE>
</DEFINITION>

<DEFINITION>
	<FOR>PrtStatToner</FOR>
	<GIVEN>TnrSpply</GIVEN>
	<TABLE>0.99900001 0.00099999 0.00099999 0.99900001 </TABLE>
</DEFINITION>

<DEFINITION>
	<FOR>PrtStatMem</FOR>
	<GIVEN>PrtMem</GIVEN>
	<TABLE>0.99900001 0.00099999 0.20000000 0.80000000 </TABLE>
</DEFINITION>

<DEFINITION>
	<FOR>PrtStatOff</FOR>
	<GIVEN>PrtOn</GIVEN>
	<TABLE>0.99000001 0.00999999 0.00999999 0.99000001 </TABLE>
</DEFINITION>

</NETWORK>
</BIF>
